~o
<STREAMINFO> 1 39
<VECSIZE> 39<NULLD><MFCC_E_D_A_Z><DIAGC>
~s "silst"
<NUMMIXES> 16
<MIXTURE> 1 4.975802e-02
<MEAN> 39
 -1.643767e+00 -1.622406e+00 7.890282e+00 7.109224e+00 6.919217e+00 6.171708e+00 1.116213e+00 5.706079e+00 6.747344e+00 6.488915e+00 2.144583e+00 3.365171e+00 9.651584e-02 -6.476439e-01 -6.151388e-01 -2.447737e-01 2.533437e-01 9.765013e-01 1.679157e+00 2.044687e+00 2.192360e+00 1.985874e+00 1.918312e+00 1.340019e+00 7.201631e-01 -7.927181e-02 3.549227e-01 3.611419e-01 6.134782e-02 -1.310916e-01 -2.570479e-01 -4.874872e-01 -4.523174e-01 -7.256116e-01 -7.238380e-01 -5.722045e-01 -2.373377e-01 -2.403732e-01 2.537336e-02
<VARIANCE> 39
 1.715970e+01 3.263583e+01 2.674212e+01 3.683193e+01 3.320704e+01 4.494553e+01 4.706762e+01 3.384457e+01 3.758791e+01 3.071816e+01 3.197736e+01 3.397447e+01 1.315734e-02 3.575346e-01 6.151041e-01 8.855352e-01 1.561715e+00 1.866060e+00 2.732758e+00 2.805669e+00 2.623599e+00 2.087413e+00 2.453929e+00 2.168136e+00 2.800823e+00 9.498347e-04 5.729594e-02 1.204884e-01 1.533205e-01 2.164817e-01 2.880707e-01 3.263520e-01 4.217808e-01 4.584840e-01 4.164146e-01 4.949642e-01 3.837774e-01 5.390273e-01 9.513277e-05
<GCONST> 8.340011e+01
<MIXTURE> 2 4.142720e-02
<MEAN> 39
 -2.074901e+00 -6.281074e-01 3.857589e+00 4.037585e+00 4.042408e+00 2.440736e+00 1.743878e+00 -2.434042e+00 1.542865e+00 -2.028882e+00 -1.896393e+00 4.910494e-01 1.927728e-01 2.575946e+00 2.469791e+00 1.168715e+00 1.292701e-01 -4.150336e-01 -8.853673e-01 -1.090270e+00 -1.129023e+00 -1.313016e+00 -1.013496e+00 -1.217391e+00 -9.731424e-01 1.770606e-01 3.632075e-01 1.563511e-01 -3.116996e-01 -6.221082e-01 -4.849948e-01 -3.115742e-01 -3.243912e-01 1.035308e-01 6.727254e-02 2.903843e-01 3.120007e-01 1.721335e-01 1.846145e-02
<VARIANCE> 39
 1.539793e+01 2.826767e+01 2.221301e+01 2.119967e+01 2.547979e+01 2.810164e+01 2.964499e+01 3.091576e+01 2.883307e+01 2.561238e+01 2.406929e+01 2.058969e+01 2.086996e-02 1.702968e+00 1.254302e+00 2.255920e+00 2.244557e+00 2.085383e+00 2.473749e+00 3.669912e+00 3.176074e+00 2.085511e+00 2.755468e+00 2.961973e+00 2.189817e+00 2.733418e-03 2.165524e-01 2.054759e-01 3.946249e-01 3.511485e-01 2.743933e-01 4.011110e-01 3.633366e-01 4.210887e-01 4.093625e-01 4.619247e-01 3.596045e-01 2.817052e-01 3.059985e-04
<GCONST> 8.921672e+01
<MIXTURE> 3 8.492637e-02
<MEAN> 39
 -2.898377e+00 -1.305378e+00 6.901102e+00 8.124211e+00 7.527549e+00 7.396803e+00 4.315140e+00 6.460466e+00 5.419688e+00 6.006460e+00 3.794318e+00 1.969742e+00 -2.161691e-02 3.888613e-03 2.117093e-01 3.504359e-02 -2.592458e-01 -1.634393e-02 8.606584e-02 5.410223e-02 6.528942e-02 5.795112e-02 -1.135952e-01 1.396182e-01 6.750697e-03 -1.186688e-02 2.696067e-02 -2.667142e-02 -1.093681e-01 -1.963438e-01 -2.062028e-01 -8.078212e-02 -1.362653e-01 -2.580331e-01 -1.684116e-01 -2.122699e-01 -1.251290e-01 2.366158e-02 5.322591e-03
<VARIANCE> 39
 1.529563e+01 2.720919e+01 2.307209e+01 1.783813e+01 2.752113e+01 3.074927e+01 2.800166e+01 2.893360e+01 2.257181e+01 1.756972e+01 2.472327e+01 2.093105e+01 1.031687e-02 4.627492e-01 1.147632e+00 1.067913e+00 1.182628e+00 1.652044e+00 1.854329e+00 1.996576e+00 2.370082e+00 2.114849e+00 2.097029e+00 2.324774e+00 1.800756e+00 3.604229e-04 7.773253e-02 1.719971e-01 1.588837e-01 2.293364e-01 3.122964e-01 3.742326e-01 4.540081e-01 4.500870e-01 3.991425e-01 3.852336e-01 3.872104e-01 3.717611e-01 7.572549e-05
<GCONST> 7.743129e+01
<MIXTURE> 4 6.505755e-02
<MEAN> 39
 -2.718219e+00 3.232127e+00 3.943063e+00 3.979553e+00 1.804054e+00 5.928512e+00 3.695418e+00 6.461313e+00 3.620827e+00 1.954118e+00 4.145667e+00 1.938926e+00 -9.159346e-02 5.881170e-02 2.145084e-01 4.565635e-03 -4.367389e-02 -1.293145e-01 5.626524e-02 9.004301e-02 1.468349e-01 -7.407239e-02 -1.174288e-03 3.102773e-03 2.096820e-02 -1.064065e-03 -1.100621e-02 -5.733315e-02 1.268983e-03 5.421763e-02 6.521666e-02 -4.931685e-03 -3.743372e-02 -5.977549e-02 4.278328e-02 4.974047e-02 -2.174527e-02 8.154122e-03 1.039459e-03
<VARIANCE> 39
 5.946687e+00 3.148523e+01 9.563039e+00 9.591250e+00 1.109191e+01 1.674739e+01 1.122978e+01 1.588675e+01 1.133140e+01 1.546399e+01 1.251782e+01 1.242222e+01 2.443148e-03 1.398068e-01 4.788937e-01 4.164512e-01 6.524050e-01 1.027313e+00 1.135880e+00 1.193768e+00 9.918103e-01 9.106264e-01 1.156465e+00 9.007958e-01 1.128722e+00 3.754082e-05 2.495799e-02 7.851749e-02 8.366720e-02 1.105089e-01 1.987318e-01 2.416456e-01 2.246150e-01 2.142504e-01 1.794459e-01 2.317889e-01 1.963107e-01 2.294554e-01 7.371119e-06
<GCONST> 4.714331e+01
<MIXTURE> 5 5.697541e-02
<MEAN> 39
 -1.176813e-01 -4.741077e-02 1.746466e+00 -1.051678e+00 -2.501648e+00 -8.989833e-01 -3.379540e-01 1.449385e+00 2.993979e+00 4.673311e+00 6.814998e+00 5.669841e+00 3.481371e-01 -4.644747e-01 4.430347e-01 -2.094585e-01 9.598004e-02 -4.614834e-02 -6.130855e-02 -7.373735e-02 7.288300e-02 -1.545450e-01 -7.593841e-02 7.848494e-02 2.100195e-02 -2.617883e-03 -1.524000e-01 9.024600e-03 1.005170e-01 4.584963e-01 5.587498e-01 6.166666e-01 2.646765e-01 2.526897e-01 5.872415e-02 -1.761637e-01 -6.087821e-01 -6.051788e-01 4.326813e-04
<VARIANCE> 39
 2.616371e+01 5.068225e+01 5.016758e+01 3.446342e+01 4.025008e+01 7.020571e+01 8.606947e+01 5.418277e+01 6.560619e+01 8.355157e+01 8.036154e+01 5.341669e+01 3.056083e-02 2.383600e+00 3.064831e+00 3.544048e+00 3.892704e+00 4.652896e+00 6.036219e+00 6.619915e+00 5.170514e+00 6.381338e+00 5.977234e+00 6.226427e+00 6.081142e+00 6.104728e-03 4.685008e-01 6.853688e-01 7.323835e-01 7.446237e-01 8.055369e-01 9.664887e-01 1.567518e+00 1.018467e+00 1.435385e+00 1.414214e+00 1.389214e+00 1.268723e+00 9.989325e-04
<GCONST> 1.227012e+02
<MIXTURE> 6 5.464381e-02
<MEAN> 39
 -2.712891e+00 -3.800570e+00 1.459121e+00 1.234309e+00 2.460752e+00 3.722471e+00 1.168779e+00 2.888551e+00 5.874858e+00 4.233000e+00 5.339842e+00 2.921437e+00 6.149230e-02 -8.679650e-01 -8.186598e-01 -7.527278e-01 -3.903118e-01 -7.318933e-02 2.281282e-01 3.448133e-01 7.666988e-01 8.102423e-01 5.882840e-01 7.031121e-01 5.755842e-01 -8.308540e-02 5.475386e-01 6.520055e-01 4.622992e-01 3.137563e-01 1.727546e-01 -8.868511e-02 -1.664845e-01 -3.527788e-01 -5.080924e-01 -5.569664e-01 -6.009390e-01 -3.920804e-01 3.407380e-02
<VARIANCE> 39
 9.424151e+00 3.612078e+01 2.266157e+01 2.670312e+01 2.159936e+01 3.979874e+01 3.238158e+01 2.694982e+01 2.700578e+01 2.682948e+01 2.452081e+01 1.948425e+01 1.707390e-02 5.872639e-01 9.489908e-01 1.088350e+00 1.042131e+00 1.830482e+00 2.157657e+00 2.176764e+00 2.532241e+00 2.303440e+00 2.511562e+00 2.387585e+00 2.420777e+00 1.493868e-03 6.252729e-02 1.287384e-01 2.121407e-01 1.732039e-01 3.188511e-01 3.850170e-01 3.932328e-01 3.959310e-01 3.879576e-01 4.553265e-01 3.573326e-01 2.956840e-01 1.447448e-04
<GCONST> 8.084550e+01
<MIXTURE> 7 6.808390e-02
<MEAN> 39
 -2.735887e+00 -5.199480e+00 -9.286575e-03 4.279450e+00 5.490419e+00 4.097660e+00 2.438142e+00 1.985497e+00 1.796414e+00 1.909031e+00 3.089307e+00 1.078528e+00 2.828141e-02 -1.278247e-01 3.533923e-01 4.920737e-01 2.753944e-01 1.992061e-01 2.655194e-01 4.380671e-02 2.434717e-02 1.428297e-01 -3.532093e-02 -7.567310e-02 -2.253736e-01 -2.956308e-02 3.497923e-01 3.456468e-01 2.838609e-01 1.007656e-01 -1.026410e-01 -4.001887e-02 -5.430418e-03 3.873979e-02 6.992628e-02 -4.096603e-02 -1.484786e-01 -1.257717e-02 2.651368e-02
<VARIANCE> 39
 9.562347e+00 4.275818e+01 2.237392e+01 3.430723e+01 2.639981e+01 2.583285e+01 3.796129e+01 3.488631e+01 4.422088e+01 3.445955e+01 2.836442e+01 1.867654e+01 1.396338e-02 2.061997e-01 4.035504e-01 5.496149e-01 1.112803e+00 1.483278e+00 1.812133e+00 1.787871e+00 2.340164e+00 1.763661e+00 2.084660e+00 1.879003e+00 1.402735e+00 5.060665e-04 7.379075e-02 1.698063e-01 2.178751e-01 2.454743e-01 4.144071e-01 4.037784e-01 4.536914e-01 5.519171e-01 5.729970e-01 4.738983e-01 3.554610e-01 3.175074e-01 2.926634e-04
<GCONST> 7.939967e+01
<MIXTURE> 8 9.529717e-02
<MEAN> 39
 -3.463910e+00 -4.083822e+00 4.631121e+00 5.792824e+00 7.206464e+00 8.244997e+00 5.602417e+00 4.770325e+00 5.056422e+00 4.260189e+00 2.810627e+00 1.390484e+00 1.030982e-01 -4.890504e-01 2.217775e-01 2.744440e-01 4.436279e-01 2.566504e-01 1.899784e-01 -9.967582e-02 7.156803e-02 2.145374e-01 2.046941e-01 -3.637455e-02 -1.377225e-01 -3.690654e-03 5.331590e-01 4.928806e-01 -1.951095e-01 -4.079071e-01 -6.204790e-01 -6.430140e-01 -4.951921e-01 -3.714582e-01 -3.612190e-01 -2.247683e-01 -9.532470e-02 4.199411e-02 3.083026e-02
<VARIANCE> 39
 2.032232e+01 3.994835e+01 4.763277e+01 3.383048e+01 3.594893e+01 4.693764e+01 3.813282e+01 4.905849e+01 3.965147e+01 3.017860e+01 4.051154e+01 2.838999e+01 2.711601e-02 1.890854e+00 2.917908e+00 2.366450e+00 2.690499e+00 3.388721e+00 3.161346e+00 3.860237e+00 4.046669e+00 3.692149e+00 3.171009e+00 3.213730e+00 2.499929e+00 4.522905e-03 4.820792e-01 6.390519e-01 6.752752e-01 5.757345e-01 6.870770e-01 6.549525e-01 7.399614e-01 8.507556e-01 7.395205e-01 6.460398e-01 8.059093e-01 5.984405e-01 1.063785e-03
<GCONST> 1.073809e+02
<MIXTURE> 9 4.295652e-02
<MEAN> 39
 1.693894e+00 9.223136e-02 3.936656e+00 4.581526e+00 6.126504e+00 3.484745e+00 3.376620e-01 2.291070e+00 2.702657e+00 -9.340313e-01 -1.790688e+00 -2.803814e+00 1.370559e-01 -4.682634e-02 1.464398e-01 3.146471e-01 3.537223e-02 -8.885441e-02 -2.080711e-01 -9.199987e-02 -2.869798e-02 3.297168e-01 -1.006319e-01 -1.566017e-01 3.173420e-01 -1.596297e-02 -9.065293e-02 -4.991882e-02 -5.724465e-03 7.964781e-03 5.694078e-02 1.813002e-01 1.800974e-01 5.904769e-02 1.503502e-01 3.635344e-01 3.071953e-01 2.237223e-01 3.749507e-03
<VARIANCE> 39
 1.394208e+01 3.495219e+01 3.143584e+01 3.723446e+01 2.695592e+01 4.263987e+01 2.559939e+01 4.057429e+01 2.535846e+01 2.986294e+01 4.033293e+01 4.089323e+01 2.584759e-02 5.023805e-01 6.236306e-01 1.554348e+00 1.129442e+00 1.618655e+00 2.393434e+00 1.797652e+00 2.154159e+00 2.496899e+00 2.111217e+00 1.865329e+00 2.726784e+00 1.191829e-03 9.159550e-02 7.959931e-02 2.749077e-01 1.618698e-01 3.852508e-01 5.428286e-01 3.607888e-01 4.562001e-01 5.198887e-01 3.371661e-01 3.253704e-01 4.997031e-01 1.206233e-04
<GCONST> 8.399010e+01
<MIXTURE> 10 7.067667e-02
<MEAN> 39
 -1.745876e+00 -6.519086e+00 7.681485e-01 4.078340e+00 2.800937e+00 1.908469e+00 -5.325205e-01 -3.244364e+00 1.162571e+00 1.154193e+00 1.648429e+00 1.021984e+00 1.150703e-01 -5.826536e-01 -6.196784e-01 -9.046276e-01 -8.739303e-01 -7.902722e-01 -7.707316e-01 -8.461922e-01 -2.886817e-01 -7.339468e-03 1.269653e-02 1.622520e-01 4.230316e-02 -7.215371e-02 3.137825e-01 4.363117e-01 4.454499e-01 3.546236e-01 4.083986e-01 3.377385e-01 2.347604e-01 2.600822e-01 1.824706e-01 1.060996e-02 -1.236373e-01 -1.088096e-01 2.196348e-02
<VARIANCE> 39
 1.246816e+01 3.210376e+01 2.127302e+01 2.566353e+01 2.858871e+01 2.685588e+01 3.124653e+01 3.163367e+01 3.028246e+01 3.608962e+01 3.613893e+01 2.229088e+01 1.289087e-02 3.472033e-01 7.428063e-01 9.148436e-01 1.415656e+00 1.765441e+00 1.907502e+00 1.891141e+00 2.222246e+00 2.776663e+00 2.678492e+00 2.281406e+00 2.207387e+00 6.329977e-04 6.304611e-02 1.146172e-01 1.664291e-01 2.292016e-01 2.874503e-01 3.006685e-01 3.226677e-01 3.588384e-01 4.837656e-01 5.259396e-01 4.575006e-01 4.369455e-01 8.631349e-05
<GCONST> 7.952275e+01
<MIXTURE> 11 8.118838e-02
<MEAN> 39
 -2.263597e+00 9.872687e-01 3.074399e+00 1.273826e+00 1.443714e+00 3.907866e+00 1.209926e+00 3.470480e+00 2.981659e+00 1.315625e+00 1.258258e+00 1.020008e+00 -7.116457e-03 -6.453182e-01 -5.774496e-02 -2.336751e-01 6.628754e-01 8.087334e-02 4.055767e-01 2.255694e-02 2.036679e-01 -2.211506e-01 1.158595e-02 2.836000e-01 1.304236e-01 2.637984e-02 -9.277423e-02 3.073883e-02 -1.131939e-01 2.517468e-01 1.450912e-01 5.819945e-02 -5.370034e-02 4.737628e-02 5.810481e-02 2.154005e-02 1.185043e-01 1.158856e-01 2.572733e-02
<VARIANCE> 39
 1.317746e+01 2.759903e+01 1.305418e+01 1.694137e+01 1.419067e+01 1.992189e+01 2.059868e+01 2.525703e+01 1.648325e+01 1.826688e+01 1.708529e+01 1.403834e+01 1.268453e-02 1.841995e+00 2.040792e+00 1.650019e+00 1.938928e+00 2.134973e+00 2.059742e+00 2.096415e+00 2.424160e+00 2.775210e+00 1.975934e+00 1.594898e+00 1.591081e+00 2.416417e-03 3.338821e-01 4.979887e-01 2.461169e-01 3.408393e-01 2.730041e-01 3.657480e-01 3.976191e-01 3.939333e-01 4.271046e-01 3.241458e-01 2.402063e-01 2.370616e-01 5.971572e-04
<GCONST> 8.319588e+01
<MIXTURE> 12 4.588534e-02
<MEAN> 39
 -1.352526e+00 1.110446e+00 3.122705e-01 2.281166e-01 9.940916e-01 1.839300e+00 -1.352145e+00 2.377255e+00 3.492850e+00 -7.935595e-01 -2.426917e-02 -1.023866e+00 -9.932791e-02 7.493844e-02 3.829448e-02 5.347129e-02 -7.481762e-03 4.115492e-02 4.916570e-02 9.958922e-02 3.521954e-02 -2.318760e-03 3.584632e-02 -7.150772e-02 -1.268370e-01 -3.648759e-05 -3.421577e-02 -1.537223e-02 3.071915e-02 8.419581e-03 -1.297224e-02 2.723232e-02 4.782496e-02 4.058143e-02 -3.360133e-02 5.966624e-02 3.398655e-02 1.470939e-02 4.674943e-04
<VARIANCE> 39
 2.697783e+00 1.045968e+01 8.056975e+00 8.920989e+00 8.697063e+00 1.558444e+01 7.567321e+00 1.350169e+01 1.401647e+01 1.570131e+01 1.354105e+01 1.487022e+01 4.300963e-03 1.096906e-01 4.934788e-01 4.799604e-01 5.443912e-01 7.746364e-01 8.499206e-01 9.788473e-01 9.824880e-01 1.222556e+00 1.230035e+00 1.108044e+00 9.697374e-01 3.754082e-05 2.874202e-02 8.485145e-02 8.422624e-02 1.170524e-01 1.400477e-01 2.005211e-01 1.653355e-01 1.783911e-01 2.700376e-01 2.248872e-01 2.196229e-01 2.084578e-01 3.730628e-06
<GCONST> 4.353649e+01
<MIXTURE> 13 5.251326e-02
<MEAN> 39
 -3.835656e+00 -7.297193e-01 4.014138e+00 5.883149e+00 5.151732e+00 5.456347e+00 3.999366e+00 4.504411e+00 4.683648e+00 5.005775e+00 4.310047e+00 2.964713e+00 1.072898e-01 1.987265e+00 2.131774e+00 -8.214844e-01 -1.557879e+00 -1.844355e+00 -1.995836e+00 -1.580978e+00 -1.191561e+00 -6.980844e-01 -8.700395e-02 -7.325567e-02 2.089093e-01 1.537013e-01 6.289323e-01 2.479281e-01 -4.520745e-01 -7.412393e-01 -6.287041e-01 -5.276027e-01 -4.466531e-01 -3.842403e-01 -4.939601e-01 -3.526549e-01 -3.219518e-01 -1.536661e-01 3.989020e-02
<VARIANCE> 39
 2.622042e+01 6.043961e+01 4.113120e+01 2.931765e+01 4.012029e+01 4.513845e+01 3.829361e+01 4.046125e+01 4.128695e+01 3.042260e+01 3.970090e+01 3.110624e+01 3.491320e-02 2.269297e+00 3.952564e+00 5.229345e+00 3.426983e+00 3.144557e+00 3.808592e+00 4.963608e+00 3.979319e+00 3.602050e+00 3.795419e+00 4.126902e+00 3.904728e+00 3.705038e-03 4.285362e-01 7.401789e-01 6.915419e-01 5.966364e-01 5.877433e-01 7.317993e-01 7.560557e-01 6.771662e-01 7.875239e-01 7.304415e-01 7.630057e-01 6.879205e-01 6.599743e-04
<GCONST> 1.101626e+02
<MIXTURE> 14 7.707805e-02
<MEAN> 39
 -1.792503e+00 -4.496514e+00 1.044374e+00 2.352708e+00 2.466058e+00 2.042042e+00 -6.755318e-01 -1.615899e+00 3.478880e+00 1.492433e+00 8.707399e-01 1.934444e+00 3.124326e-03 6.255217e-02 3.300153e-01 1.919281e-01 -1.959111e-01 -2.664286e-01 -1.566220e-01 -3.946106e-02 2.334137e-01 1.338854e-01 -4.421303e-02 -1.115497e-01 -4.572600e-02 -1.025010e-02 1.969324e-02 8.829862e-02 9.473670e-02 1.224890e-01 8.906057e-02 8.461540e-02 1.494586e-01 1.776004e-01 -5.644199e-02 -5.700738e-02 2.440343e-02 -1.001751e-01 5.990097e-03
<VARIANCE> 39
 1.052391e+01 3.503931e+01 1.406823e+01 1.765678e+01 2.669272e+01 2.536451e+01 3.152127e+01 2.650105e+01 2.146911e+01 2.379062e+01 2.651117e+01 1.666283e+01 1.299765e-02 2.605413e-01 6.330387e-01 6.641171e-01 1.158572e+00 1.348293e+00 1.217066e+00 1.786682e+00 1.914361e+00 1.954924e+00 1.770441e+00 1.753363e+00 1.487974e+00 2.277094e-04 5.093664e-02 9.555969e-02 1.288383e-01 2.022422e-01 2.428090e-01 2.627297e-01 3.501086e-01 3.357092e-01 3.933880e-01 3.032360e-01 3.799656e-01 3.023213e-01 4.691996e-05
<GCONST> 6.968239e+01
<MIXTURE> 15 6.314902e-02
<MEAN> 39
 -1.212532e+00 -3.698229e+00 2.103662e+00 4.762429e+00 4.810868e+00 3.129711e+00 2.538259e+00 1.041330e+00 3.091534e+00 1.041147e+00 1.647703e-01 5.092019e-01 1.895011e-01 -1.485567e+00 -1.748147e+00 -1.817538e+00 -1.586564e+00 -1.296545e+00 -9.533107e-01 -4.239548e-01 1.188626e-01 2.488460e-01 5.556713e-01 1.056969e+00 8.225976e-01 -1.220411e-01 3.279227e-01 4.040891e-01 2.277516e-01 4.084824e-02 1.124275e-02 -1.044349e-01 -2.749845e-01 -2.690615e-01 -1.604443e-01 -3.592509e-02 1.917700e-02 -1.134059e-01 1.665306e-02
<VARIANCE> 39
 1.137728e+01 3.212282e+01 2.482397e+01 2.553367e+01 2.657557e+01 2.711702e+01 2.658934e+01 3.883845e+01 2.871834e+01 2.237019e+01 2.632255e+01 1.927176e+01 1.326592e-02 3.386984e-01 7.736443e-01 8.908760e-01 1.398021e+00 1.938744e+00 1.962433e+00 2.312130e+00 2.558506e+00 3.366304e+00 2.713607e+00 2.673925e+00 2.418551e+00 6.998804e-04 8.415747e-02 1.427793e-01 1.812131e-01 2.127554e-01 3.569581e-01 3.374814e-01 2.971404e-01 4.302786e-01 3.939050e-01 3.507253e-01 3.206587e-01 3.809919e-01 9.040035e-05
<GCONST> 7.948680e+01
<MIXTURE> 16 5.037032e-02
<MEAN> 39
 -1.543645e+00 -2.135698e-01 4.951957e+00 3.888828e+00 5.217499e+00 3.550803e+00 1.413798e+00 3.971491e+00 3.078878e+00 2.559639e+00 6.804721e-02 -2.113985e-01 1.048437e-01 -1.280741e+00 -1.131153e+00 -1.872234e-01 2.860933e-01 1.202994e+00 1.936195e+00 1.930708e+00 2.504638e+00 1.918609e+00 8.661451e-01 -1.890515e-01 -6.465073e-01 -1.105540e-01 4.555336e-01 3.635412e-01 3.415035e-02 -7.715850e-02 -2.701012e-01 -5.248040e-01 -4.424736e-01 -3.508460e-01 -2.729982e-01 -2.513327e-01 3.716392e-02 1.489145e-01 2.682119e-02
<VARIANCE> 39
 1.323712e+01 3.292265e+01 1.695363e+01 2.222123e+01 1.813326e+01 2.237563e+01 2.483552e+01 2.583453e+01 2.803969e+01 2.963836e+01 3.166986e+01 2.285861e+01 1.349479e-02 5.472656e-01 1.000429e+00 1.462674e+00 1.244129e+00 2.018885e+00 2.227039e+00 1.935373e+00 2.679224e+00 2.973794e+00 2.626449e+00 3.234075e+00 3.494462e+00 1.142696e-03 7.186682e-02 9.543367e-02 1.616869e-01 1.877704e-01 2.640195e-01 2.969877e-01 4.432137e-01 3.749598e-01 4.210795e-01 4.704016e-01 4.123081e-01 3.444806e-01 9.632452e-05
<GCONST> 8.037301e+01
~h "#i"
<BEGINHMM>
<NUMSTATES> 16
<STATE> 2
<NUMMIXES> 15
<MIXTURE> 1 5.030767e-02
<MEAN> 39
 1.236955e+00 1.300166e+01 -5.485111e+00 -2.735781e+00 -2.944865e+00 -3.187869e+00 -1.316335e+00 -8.673042e-01 -6.036160e+00 -4.252603e-01 -9.687874e+00 -1.501651e-02 7.225449e-01 4.258424e-01 6.659148e-01 2.208354e-01 6.167936e-01 -1.666430e-01 6.742796e-01 4.779758e-01 -1.629341e-01 -2.425073e-01 6.581347e-03 -1.178606e-02 1.535986e+00 -3.919662e-03 -1.009795e-02 -5.859689e-02 2.565908e-01 7.725433e-03 6.830757e-02 -2.786036e-01 -1.636989e-01 8.135797e-02 4.130273e-01 -4.047708e-02 7.429719e-01 2.059750e-03 8.017312e-03
<VARIANCE> 39
 1.038640e+01 1.717853e+01 1.471636e+01 1.358175e+01 1.112354e+01 1.178802e+01 1.809037e+01 1.809526e+01 2.140284e+01 7.357696e+00 2.244240e+01 2.491470e+01 6.957196e-03 8.803387e-01 6.434534e-01 6.622548e-01 1.343570e+00 1.065625e+00 1.143098e+00 2.587518e+00 1.463426e+00 2.747220e+00 1.802512e+00 3.902027e+00 2.676635e+00 9.798175e-04 1.264252e-01 1.190966e-01 1.082146e-01 9.890241e-02 1.399198e-01 4.510504e-01 3.664218e-01 3.535958e-01 3.409737e-01 3.563973e-01 4.257178e-01 3.733175e-01 5.432905e-05
<GCONST> 6.979823e+01
<MIXTURE> 2 4.155134e-02
<MEAN> 39
 4.928880e+00 5.868888e+00 1.168559e+00 -3.661399e+00 -9.905430e+00 -6.460077e+00 -8.633186e+00 -3.713884e+00 -3.816887e+00 -3.489166e+00 -2.048792e-01 -1.988657e+00 6.013790e-01 4.247181e-01 3.003809e+00 -3.098119e-01 -8.262320e-01 -9.314759e-01 -3.110097e-01 -1.991040e+00 7.636560e-01 -1.738422e-01 -3.074758e-01 7.463294e-01 -1.739628e+00 8.797380e-02 -8.216005e-01 -3.040409e-01 -2.941546e-02 3.773009e-01 8.731614e-01 9.608321e-01 7.191862e-01 6.979489e-01 6.561298e-01 4.851404e-01 2.614181e-01 4.508677e-01 -2.932436e-02
<VARIANCE> 39
 1.177633e+01 5.482732e+01 4.264659e+01 3.683337e+01 3.742780e+01 1.723405e+01 3.852362e+01 2.113835e+01 1.284735e+01 3.834731e+01 2.692697e+01 6.695061e+01 1.803971e-02 1.476357e+00 3.577037e+00 2.566519e+00 3.244466e+00 3.513203e+00 2.317256e+00 3.018133e+00 2.423283e+00 2.768646e+00 2.245351e+00 3.384851e+00 3.291691e+00 5.008402e-03 2.078133e-01 5.163637e-01 6.461669e-01 5.974824e-01 6.066805e-01 2.608524e-01 6.144897e-01 4.146599e-01 4.423212e-01 3.891943e-01 5.018210e-01 5.365173e-01 3.948747e-04
<GCONST> 9.786868e+01
<MIXTURE> 3 5.907398e-02
<MEAN> 39
 2.982104e+00 1.112560e+01 -6.554375e+00 -4.169409e+00 -4.287595e+00 -3.570379e+00 3.878433e+00 3.537225e+00 6.294691e+00 2.523270e+00 6.770491e-01 1.582293e+00 7.266063e-01 -8.030043e-01 1.176119e+00 -2.608708e+00 -1.905150e+00 -2.296443e+00 -2.328821e+00 -1.501671e+00 -2.498537e+00 -6.617724e-01 -1.626819e-01 5.848382e-01 2.010858e+00 1.480618e-01 -5.802843e-01 -9.643454e-01 1.193219e+00 8.785566e-01 8.924911e-01 9.688959e-01 -2.847109e-01 -9.621447e-02 -4.441413e-01 6.828025e-02 1.420553e-01 -5.570900e-03 -4.757128e-02
<VARIANCE> 39
 1.036799e+01 3.649275e+01 1.821860e+01 1.941238e+01 3.896101e+01 1.975989e+01 3.896640e+01 1.104626e+01 4.551346e+01 2.725369e+01 3.264573e+01 4.212724e+01 1.191842e-02 1.854863e+00 2.319551e+00 2.600849e+00 2.660982e+00 2.433300e+00 3.944916e+00 4.012406e+00 1.423530e+00 4.512835e+00 1.000067e+01 8.687999e+00 6.513304e+00 3.155658e-03 1.076155e-01 3.415469e-01 1.897080e-01 3.362117e-01 5.054215e-01 4.390801e-01 6.035675e-01 3.602516e-01 5.447890e-01 4.867922e-01 5.923040e-01 5.674120e-01 3.063579e-04
<GCONST> 9.600162e+01
<MIXTURE> 4 6.290352e-02
<MEAN> 39
 -4.339965e-01 1.027846e+01 3.444957e+00 -7.749609e+00 -6.968280e-01 -8.381256e+00 -3.381008e+00 3.424060e+00 2.115688e+00 1.562583e+00 4.568894e+00 1.310458e+00 7.708302e-01 -9.247880e-01 3.770509e+00 -1.411732e+00 1.758975e+00 8.224175e-01 -2.188201e+00 -1.560966e+00 -1.261564e+00 -6.020974e-01 -2.086526e+00 1.623971e+00 6.198434e-02 -1.974771e-03 3.217380e-01 -7.915439e-01 -3.827006e-01 1.050777e+00 -8.981121e-01 6.811294e-01 5.920108e-01 -1.664472e-01 -6.025944e-01 -7.149300e-02 -4.803334e-01 -4.860155e-01 5.259553e-03
<VARIANCE> 39
 1.028514e+01 1.898545e+01 1.569294e+01 1.743734e+01 1.724626e+01 1.975382e+01 3.573355e+01 2.013027e+01 3.056923e+01 2.053278e+01 1.624508e+01 1.661250e+01 7.264664e-03 3.556859e-01 9.068368e-01 8.410853e-01 1.391552e+00 1.399603e+00 2.419834e+00 2.439768e+00 2.064108e+00 1.861684e+00 2.544029e+00 2.996822e+00 2.031419e+00 2.183494e-04 9.437110e-02 1.820988e-01 2.344998e-01 4.304455e-01 3.293916e-01 3.234263e-01 3.422346e-01 3.844274e-01 4.070121e-01 3.277593e-01 4.102848e-01 3.320875e-01 3.244950e-05
<GCONST> 7.391435e+01
<MIXTURE> 5 8.717781e-02
<MEAN> 39
 1.069753e+00 7.439790e+00 1.442756e+00 -2.101037e-01 -1.845782e+00 -7.497503e-01 2.557041e+00 2.229281e+00 2.753435e+00 4.475905e+00 2.142189e+00 3.956925e+00 5.455840e-01 3.786115e-01 1.258806e+00 -1.089310e-01 2.706559e-01 -7.666157e-01 -5.530057e-01 -2.209673e-01 -2.219259e-01 -2.060686e-01 9.087498e-02 -9.817529e-01 2.440222e-01 2.308447e-02 1.521687e-02 1.305813e-01 -1.503576e-01 -2.891252e-01 -1.022186e-01 -3.143507e-01 -1.068479e-01 -3.559442e-02 -5.681503e-02 -2.951286e-01 -1.963389e-01 -1.930470e-01 1.981351e-02
<VARIANCE> 39
 9.871048e+00 2.496156e+01 3.116317e+01 1.806874e+01 1.847614e+01 2.479592e+01 2.864001e+01 2.131137e+01 2.710880e+01 2.614016e+01 3.501333e+01 2.709754e+01 9.656067e-03 5.886685e-01 2.631037e+00 7.362267e-01 9.116791e-01 1.006020e+00 2.485788e+00 3.233263e+00 2.167443e+00 2.027970e+00 1.613426e+00 3.185686e+00 1.697397e+00 2.222110e-03 1.409920e-01 2.677038e-01 2.356349e-01 2.689769e-01 3.034338e-01 4.377666e-01 3.938004e-01 4.110819e-01 4.549405e-01 3.897788e-01 4.260225e-01 3.820439e-01 1.453402e-04
<GCONST> 8.224667e+01
<MIXTURE> 6 7.917204e-02
<MEAN> 39
 -2.388309e+00 8.338470e+00 -3.878407e+00 -1.081165e+01 -3.679734e+00 -1.029071e+01 -4.573403e-01 2.778284e+00 -2.836687e+00 -1.529931e+00 -3.312399e+00 -6.336820e+00 8.237282e-01 -1.145462e-01 2.090451e+00 -1.117237e+00 1.717007e+00 -1.165152e+00 -1.247536e+00 2.286946e-01 -9.492227e-01 -1.243055e+00 8.670005e-01 -9.603561e-01 1.187516e+00 -1.570893e-02 2.889180e-01 -3.700971e-01 4.395384e-01 5.382024e-01 -1.332047e-01 1.159486e+00 -1.539212e-01 -2.581852e-01 1.112036e-01 -1.763657e-01 4.644532e-02 6.808614e-01 5.814469e-04
<VARIANCE> 39
 7.698710e+00 1.419855e+01 1.673850e+01 2.014353e+01 2.026439e+01 3.248269e+01 4.214424e+01 3.765337e+01 2.949243e+01 3.730056e+01 2.578639e+01 2.396621e+01 5.792195e-03 5.764950e-01 1.111164e+00 1.341770e+00 1.962354e+00 2.643195e+00 4.921838e+00 2.668405e+00 2.682958e+00 5.097639e+00 6.386704e+00 3.834801e+00 4.594930e+00 2.755965e-04 7.338903e-02 2.522823e-01 2.507587e-01 5.209918e-01 7.579879e-01 5.951276e-01 3.570597e-01 6.470888e-01 6.867076e-01 7.780774e-01 5.248777e-01 5.161901e-01 2.963147e-05
<GCONST> 8.689681e+01
<MIXTURE> 7 6.498718e-02
<MEAN> 39
 -4.833262e-01 1.073583e+01 1.943627e+00 -3.073785e+00 -4.707162e+00 -4.817703e+00 -8.092599e+00 -1.972549e+00 3.226897e+00 -3.479451e+00 6.922266e+00 -2.425781e+00 7.373911e-01 -1.088676e-02 1.691229e+00 -6.461401e-01 1.753952e+00 -1.037715e+00 2.461122e-01 -1.957458e+00 -2.121746e-01 -1.426227e+00 -6.834393e-01 6.909968e-01 -1.696874e+00 1.339030e-02 1.205651e-01 -4.176193e-01 2.368675e-02 -1.707905e-01 -9.645408e-02 5.131695e-01 3.206953e-01 3.152273e-01 -5.063338e-01 3.251499e-01 -8.663918e-01 2.679820e-01 5.407854e-03
<VARIANCE> 39
 6.958365e+00 2.835480e+01 1.621226e+01 2.194162e+01 1.853289e+01 3.297849e+01 1.302333e+01 3.867114e+01 3.375330e+01 4.703394e+01 1.964855e+01 4.888306e+01 6.745159e-03 5.780334e-01 6.588171e-01 1.481297e+00 1.845945e+00 1.523705e+00 1.498734e+00 1.528944e+00 3.363801e+00 2.794661e+00 3.602191e+00 2.589818e+00 1.855837e+00 4.002688e-04 8.893219e-02 2.416911e-01 1.848236e-01 2.810004e-01 3.349557e-01 4.984374e-01 2.630353e-01 4.140837e-01 4.850943e-01 4.338793e-01 3.620258e-01 6.111816e-01 3.460344e-05
<GCONST> 7.912819e+01
<MIXTURE> 8 7.881188e-02
<MEAN> 39
 2.536416e+00 1.390266e+01 -3.200471e+00 -1.885957e+00 -3.111933e+00 -3.040655e+00 -1.209326e+00 1.125835e+00 -4.706556e-02 1.637577e+00 6.492804e-01 4.862376e+00 7.172480e-01 -2.095984e-01 3.208433e-01 -1.365729e-01 -1.433464e-02 -3.071635e-01 -3.013242e-01 -3.788782e-01 -3.262750e-02 -7.949577e-02 -3.693740e-01 -3.363159e-01 -3.123011e-02 1.563532e-02 -2.156443e-01 -1.692071e-01 -1.802669e-01 -2.955677e-02 -2.167579e-01 -2.939587e-01 -2.504596e-01 -2.852540e-01 -3.353763e-01 -3.275325e-01 -3.235911e-01 -4.112252e-01 7.157870e-03
<VARIANCE> 39
 9.885542e+00 1.684853e+01 2.235129e+01 1.707758e+01 1.241491e+01 1.553689e+01 3.875531e+01 2.897555e+01 1.822840e+01 4.512145e+01 3.698744e+01 5.234849e+01 1.493481e-02 3.765712e-01 3.837110e-01 3.983368e-01 6.375169e-01 4.649702e-01 7.178346e-01 6.756672e-01 1.316336e+00 1.246482e+00 1.173929e+00 1.663114e+00 1.113055e+00 2.643320e-04 6.129818e-02 1.022726e-01 1.022636e-01 1.360975e-01 1.073130e-01 1.178989e-01 2.889934e-01 1.631762e-01 2.218110e-01 1.988864e-01 2.219381e-01 2.952351e-01 5.757501e-05
<GCONST> 6.095872e+01
<MIXTURE> 9 6.821046e-02
<MEAN> 39
 3.016164e+00 1.272120e+01 -3.100603e+00 -1.997903e+00 -5.207215e+00 -4.344813e+00 -4.302679e+00 -2.142529e-01 -5.776734e-01 -1.582987e+00 -5.143177e+00 -7.315075e+00 6.654887e-01 -4.176587e-01 1.139830e+00 -1.318125e-01 2.012555e-01 -1.002683e+00 -2.766202e-01 -1.201668e+00 -7.358919e-01 -6.001288e-01 -3.526485e-01 2.850084e-01 2.868119e-01 2.123760e-02 -2.036670e-01 -3.425975e-01 1.357620e-01 -1.478494e-01 2.134298e-01 -1.087692e-01 1.732802e-01 2.840817e-02 -1.393743e-01 -3.684102e-02 4.955326e-01 8.476678e-01 9.282764e-03
<VARIANCE> 39
 1.499650e+01 3.139496e+01 2.388239e+01 3.556128e+01 2.889908e+01 1.915908e+01 6.836461e+01 2.072381e+01 1.408038e+01 3.079833e+01 7.800383e+01 3.117635e+01 1.480755e-02 8.103919e-01 1.793147e+00 1.377988e+00 1.874323e+00 1.742938e+00 2.381081e+00 1.351461e+00 2.913994e+00 1.448457e+00 1.848518e+00 3.271851e+00 5.107677e+00 1.124557e-03 1.009348e-01 3.276161e-01 3.863769e-01 4.334347e-01 3.108537e-01 3.741002e-01 4.669367e-01 3.722329e-01 2.998891e-01 6.173364e-01 6.569344e-01 5.702468e-01 8.926819e-05
<GCONST> 8.784188e+01
<MIXTURE> 10 7.689273e-02
<MEAN> 39
 2.717431e+00 8.166044e+00 -1.314815e+00 -1.915998e+00 -4.416006e+00 -2.446200e+00 9.866793e-01 5.198729e+00 4.796363e+00 8.155689e+00 4.939475e+00 6.629849e+00 6.298428e-01 6.410843e-01 3.107330e+00 -2.160167e+00 -2.076103e+00 -2.809147e+00 -3.265211e+00 -1.352112e+00 -1.760233e+00 -2.164499e+00 -1.069323e+00 -1.624743e+00 8.473717e-01 1.766395e-01 -6.672832e-01 -7.611333e-01 3.955987e-01 5.793647e-01 7.824827e-01 7.922631e-01 8.707673e-02 -1.770404e-01 -5.087965e-01 -7.700918e-01 -5.672557e-01 -5.957409e-01 -3.081052e-02
<VARIANCE> 39
 1.577564e+01 6.096882e+01 1.565454e+01 2.432764e+01 1.593910e+01 2.413498e+01 2.812648e+01 3.532726e+01 4.000356e+01 2.818724e+01 5.226144e+01 3.850356e+01 1.914869e-02 1.382631e+00 3.111238e+00 2.472452e+00 1.955688e+00 2.371668e+00 2.536234e+00 2.419367e+00 2.876196e+00 3.564445e+00 2.706402e+00 3.302118e+00 4.180096e+00 2.360561e-03 2.747093e-01 3.848685e-01 2.556017e-01 5.464820e-01 4.731108e-01 5.137877e-01 4.935669e-01 5.568900e-01 6.562793e-01 4.922050e-01 9.280823e-01 6.197501e-01 4.711389e-04
<GCONST> 9.736879e+01
<MIXTURE> 11 7.898757e-02
<MEAN> 39
 1.122571e+00 1.473962e+01 -3.756872e+00 -7.485088e-01 -2.549373e+00 -6.303967e+00 4.534098e+00 4.619311e+00 2.673479e+00 4.416125e+00 1.793036e-01 5.165478e+00 6.891088e-01 2.537744e-01 1.294027e+00 -3.112991e-01 1.159735e+00 -8.369871e-01 7.091336e-01 -8.207438e-01 -5.492039e-01 -9.353539e-01 1.505263e-01 -4.082336e-01 1.530160e+00 -1.197682e-03 -2.435928e-02 -8.191996e-01 1.835381e-01 -5.673969e-01 -1.832920e-01 1.179965e-01 -4.958393e-01 -3.720520e-01 -3.799261e-01 -5.990592e-01 -3.185436e-01 -6.086391e-01 1.000859e-02
<VARIANCE> 39
 9.154062e+00 1.806616e+01 1.205981e+01 4.078273e+01 1.871537e+01 1.685596e+01 1.636525e+01 2.330395e+01 2.982649e+01 3.635079e+01 3.511903e+01 2.365892e+01 9.071944e-03 9.687939e-01 1.811391e+00 1.667709e+00 3.089562e+00 2.217593e+00 2.375301e+00 2.565547e+00 3.174575e+00 3.334472e+00 3.282031e+00 4.877789e+00 3.787647e+00 1.240993e-03 1.457985e-01 2.342118e-01 2.709886e-01 3.561713e-01 5.128711e-01 5.492154e-01 4.705691e-01 4.435671e-01 4.695369e-01 6.219027e-01 5.651792e-01 3.243298e-01 8.972938e-05
<GCONST> 8.747299e+01
<MIXTURE> 12 7.328964e-02
<MEAN> 39
 3.022522e+00 1.488435e+01 -6.016902e-01 -4.547351e-02 -4.669111e+00 -4.282320e+00 3.668983e+00 1.447752e+00 2.928671e+00 4.527296e+00 -3.777291e-01 6.466334e+00 7.281772e-01 -2.922268e-01 2.187690e-01 -9.278440e-01 -5.555078e-01 -9.933245e-01 -6.548975e-01 -1.088284e+00 -1.083834e+00 -1.292227e+00 -1.745718e+00 -1.674978e+00 -8.381380e-01 4.101370e-02 -3.800759e-01 -5.469400e-01 -2.502469e-01 -2.038046e-01 4.901916e-02 -1.872962e-01 -3.121835e-01 -1.919267e-01 -4.455888e-01 -5.686691e-01 -3.815329e-01 -4.551471e-01 1.047217e-03
<VARIANCE> 39
 8.564658e+00 1.609337e+01 1.212338e+01 1.136358e+01 1.393571e+01 1.532584e+01 1.173197e+01 1.738596e+01 1.660737e+01 1.560406e+01 1.934406e+01 1.863331e+01 6.147671e-03 5.879475e-01 1.029745e+00 7.858531e-01 9.950498e-01 1.297932e+00 1.376064e+00 1.361386e+00 7.387912e-01 1.746044e+00 1.881799e+00 1.610500e+00 2.162982e+00 4.078882e-04 8.106831e-02 1.390373e-01 1.083210e-01 1.160285e-01 2.136022e-01 2.313741e-01 2.365884e-01 2.351502e-01 2.971852e-01 1.588678e-01 3.394240e-01 3.489873e-01 5.187826e-05
<GCONST> 6.322359e+01
<MIXTURE> 13 6.736471e-02
<MEAN> 39
 -2.235130e+00 1.160126e+01 2.426369e+00 -6.568783e+00 -2.264698e+00 -6.765350e+00 -6.927946e+00 -5.541443e-01 2.679500e+00 -3.725025e+00 2.729561e+00 1.469991e+00 8.610134e-01 -2.139233e-01 1.647444e+00 -6.832834e-01 1.717104e+00 -7.768616e-01 -6.767744e-01 -6.666491e-01 -7.439590e-01 -6.106291e-04 -1.326728e+00 1.079428e+00 -9.401488e-01 4.693980e-05 1.953417e-01 -5.442665e-01 1.031753e-01 4.000225e-02 -4.741218e-01 5.806394e-01 2.197248e-01 1.974443e-01 -2.181430e-01 2.921981e-01 -2.091461e-01 -3.535286e-01 6.374011e-04
<VARIANCE> 39
 9.672860e+00 2.668752e+01 1.129841e+01 2.227682e+01 1.831161e+01 2.207394e+01 2.581048e+01 2.132840e+01 2.554714e+01 2.804868e+01 2.249989e+01 2.234346e+01 3.888383e-03 2.646196e-01 6.515706e-01 8.996350e-01 1.270948e+00 9.486631e-01 1.141153e+00 1.366382e+00 9.723391e-01 1.059595e+00 2.336015e+00 1.694485e+00 1.602274e+00 1.109280e-04 3.983209e-02 1.388936e-01 1.039998e-01 1.429555e-01 1.421082e-01 2.721288e-01 2.732260e-01 2.376635e-01 2.130819e-01 2.850173e-01 2.947228e-01 3.052571e-01 7.374781e-06
<GCONST> 6.143480e+01
<MIXTURE> 14 5.515943e-02
<MEAN> 39
 1.342416e+00 9.957947e+00 -2.431048e+00 -2.262410e+00 -5.098238e+00 -4.495150e+00 -3.583268e+00 2.286566e+00 -5.171451e+00 -2.880985e+00 -3.528811e+00 -1.606162e+00 7.678191e-01 9.010386e-02 7.623060e-01 -2.800704e-01 2.650488e-01 -4.733579e-01 -3.214391e-01 -3.779084e-01 -1.301288e-01 -1.032223e-03 4.289744e-01 -1.990287e-01 6.441160e-01 6.959784e-04 -1.181076e-01 7.984183e-02 -1.390872e-02 -1.310106e-01 1.457090e-01 -1.000697e-01 -3.092623e-01 -1.491338e-01 9.852327e-02 2.300588e-01 1.841497e-01 7.161219e-02 6.185413e-03
<VARIANCE> 39
 9.480091e+00 2.015498e+01 1.459586e+01 2.363445e+01 1.547047e+01 1.699616e+01 1.770133e+01 4.406192e+01 3.621793e+01 1.451148e+01 2.366714e+01 2.743696e+01 8.190352e-03 2.275232e-01 6.236138e-01 5.261229e-01 1.372794e+00 1.163096e+00 1.679697e+00 1.746130e+00 1.181061e+00 2.208056e+00 1.839807e+00 1.784226e+00 1.465347e+00 2.685849e-04 4.054439e-02 7.333128e-02 1.476582e-01 3.428553e-01 1.779071e-01 3.816856e-01 2.445333e-01 2.089190e-01 2.752367e-01 2.912189e-01 1.705178e-01 2.957572e-01 2.332683e-05
<GCONST> 6.555392e+01
<MIXTURE> 15 5.610872e-02
<MEAN> 39
 1.263714e+00 1.094966e+01 5.643031e-01 -8.023540e-01 -5.397189e+00 -3.354877e+00 -7.462234e+00 2.809950e-01 -2.037987e+00 -2.263778e+00 -8.062918e-03 -1.491850e+00 6.698149e-01 6.014925e-01 4.121647e+00 -2.713746e-01 -2.169311e+00 -2.210627e+00 -2.030179e+00 -2.858974e+00 -3.016562e-01 -1.315389e+00 -1.377745e+00 4.167922e-01 -2.070711e+00 1.842305e-01 -5.361183e-01 -1.116641e+00 -1.851062e-01 -1.092140e-01 2.860821e-01 3.670093e-01 7.846450e-01 1.358761e-01 4.928227e-01 1.345742e-01 1.634280e-01 1.468034e-01 -3.987637e-02
<VARIANCE> 39
 9.131612e+00 4.403403e+01 1.367719e+01 1.927740e+01 2.592254e+01 3.142262e+01 3.487882e+01 3.942264e+01 4.303148e+01 3.329514e+01 2.365855e+01 1.663362e+01 1.533424e-02 1.161495e+00 3.445583e+00 1.726008e+00 1.444021e+00 2.144655e+00 2.604429e+00 3.623073e+00 3.422509e+00 2.264317e+00 2.914825e+00 4.265530e+00 2.506263e+00 2.231754e-03 1.837893e-01 4.760634e-01 1.747720e-01 3.809681e-01 2.789335e-01 4.433120e-01 4.713085e-01 7.328004e-01 4.406169e-01 6.384494e-01 4.767226e-01 4.462749e-01 4.276042e-04
<GCONST> 9.205956e+01
<STATE> 3
<NUMMIXES> 15
<MIXTURE> 1 8.228851e-02
<MEAN> 39
 -1.571339e+00 9.170346e+00 -5.071408e+00 -4.097089e+00 -5.909831e+00 -4.267111e+00 -9.908987e-02 3.790095e-01 4.326819e-01 7.798696e-01 1.753453e-01 3.552112e+00 8.229806e-01 -1.560681e+00 -2.320228e-01 -4.503160e-01 2.696226e-01 -1.284948e-01 -5.352003e-01 -1.430021e+00 -1.756743e+00 -1.486951e+00 -4.690518e-01 1.405600e-01 1.224350e+00 5.765369e-02 3.448068e-02 -5.674529e-01 7.461235e-01 7.583047e-01 8.090655e-01 9.208854e-01 2.807554e-01 4.724257e-01 3.234724e-01 3.191098e-01 1.900848e-01 -9.743416e-02 -3.927530e-02
<VARIANCE> 39
 1.308422e+01 4.564640e+01 2.075917e+01 1.433694e+01 1.967297e+01 1.442168e+01 3.255470e+01 1.639950e+01 4.448188e+01 5.287523e+01 4.109488e+01 5.096738e+01 6.056946e-03 7.237684e-01 5.329756e-01 8.330346e-01 6.964484e-01 1.023966e+00 1.414378e+00 1.155671e+00 2.091243e+00 4.218628e+00 6.688952e+00 9.904887e+00 8.219738e+00 2.984348e-04 1.600797e-01 2.490711e-01 2.767940e-01 2.646618e-01 3.464874e-01 3.893695e-01 5.008625e-01 3.107941e-01 4.409404e-01 8.235608e-01 6.975989e-01 7.425448e-01 2.577589e-04
<GCONST> 8.574213e+01
<MIXTURE> 2 5.229341e-02
<MEAN> 39
 -4.115683e-01 4.240263e+00 -4.558058e-02 -2.965298e+00 -2.229708e+00 -1.189254e+00 2.233785e+00 3.841339e+00 1.839658e-01 8.427199e-01 -1.271295e+00 8.899735e-01 8.630308e-01 -1.176814e+00 -2.754372e-01 -4.930516e-01 -3.840908e-01 -2.599919e-01 -9.753910e-01 -1.347723e+00 -1.158892e+00 -1.594566e+00 -1.037637e+00 -9.086247e-01 -3.282360e-01 4.168054e-02 1.913743e-02 -3.965419e-01 8.817806e-02 1.925262e-01 1.405673e-01 7.863379e-02 -9.886719e-02 -1.872574e-01 2.097226e-01 2.609199e-01 3.674772e-01 4.362765e-02 -1.582033e-02
<VARIANCE> 39
 8.298815e+00 5.087257e+00 9.443968e+00 8.490669e+00 1.000336e+01 1.248712e+01 1.720836e+01 1.010656e+01 1.990603e+01 1.671583e+01 9.928356e+00 1.494059e+01 4.652146e-03 6.415734e-01 3.837275e-01 4.951790e-01 5.532224e-01 7.665756e-01 9.898592e-01 1.304620e+00 1.402565e+00 1.820446e+00 1.232817e+00 1.137014e+00 1.251235e+00 5.997581e-04 1.334598e-01 1.775783e-01 8.153716e-02 7.721516e-02 1.508827e-01 1.350709e-01 1.740592e-01 1.369036e-01 2.224486e-01 2.519913e-01 1.676195e-01 2.603041e-01 1.772156e-04
<GCONST> 5.550895e+01
<MIXTURE> 3 7.473965e-02
<MEAN> 39
 2.336766e+00 1.037139e+01 7.275841e-01 2.737317e+00 -5.841088e+00 -2.865968e+00 -1.118851e+01 -2.630240e+00 -1.253270e+00 9.428951e-01 3.954121e+00 -4.137560e+00 7.974012e-01 -2.355273e-01 1.404642e+00 3.444313e-02 5.000694e-01 -2.381195e-01 -5.178455e-02 -3.323251e-01 3.654254e-01 -7.441276e-01 1.688797e-01 2.792209e-01 1.784457e-02 3.014431e-03 -1.611039e-01 3.656184e-02 -9.766530e-03 -5.517371e-01 3.854923e-02 -1.650863e-01 4.155752e-01 3.040504e-01 3.721083e-01 -2.770958e-01 -1.571019e-01 1.503111e-01 2.221760e-03
<VARIANCE> 39
 9.052730e+00 4.513578e+01 3.835714e+01 1.384048e+01 2.519043e+01 1.794323e+01 2.967089e+01 2.991311e+01 3.079699e+01 2.633818e+01 3.433931e+01 1.856833e+01 2.061368e-03 3.713823e-01 5.805909e-01 1.629671e+00 1.329181e+00 1.289855e+00 1.534654e+00 1.706931e+00 2.462198e+00 2.337214e+00 1.642265e+00 1.032957e+00 1.752487e+00 1.333504e-04 3.379401e-02 8.936598e-02 2.657924e-01 1.373465e-01 3.028724e-01 2.820286e-01 2.616295e-01 3.999172e-01 2.649115e-01 2.956532e-01 2.242755e-01 2.591335e-01 9.501670e-06
<GCONST> 6.742515e+01
<MIXTURE> 4 6.832710e-02
<MEAN> 39
 -1.082544e+00 1.297059e+01 1.306420e+00 -2.936942e+00 -2.626224e+00 -5.551533e+00 -8.595590e+00 -1.662835e+00 1.567016e-01 -5.126726e+00 5.467751e+00 -9.291490e-01 8.724967e-01 -3.052185e-01 7.899243e-01 -3.213092e-01 5.712905e-01 -5.938148e-01 6.276387e-03 -3.495740e-01 -8.912833e-02 -1.465532e-01 -4.549793e-01 4.028139e-01 -6.190213e-01 7.203290e-03 4.468944e-02 -1.859667e-01 1.493244e-01 -2.312643e-01 3.807978e-03 1.342066e-01 1.259992e-02 1.402990e-01 3.052489e-03 2.232753e-01 -1.802466e-01 9.132756e-02 4.098655e-04
<VARIANCE> 39
 1.065989e+01 1.621827e+01 1.038601e+01 2.504242e+01 6.822266e+00 9.771169e+00 1.690300e+01 1.433956e+01 1.926674e+01 4.067957e+01 1.346769e+01 1.819136e+01 4.649078e-03 1.166909e-01 5.624305e-01 4.214457e-01 5.041010e-01 6.205665e-01 7.954257e-01 8.006067e-01 4.778346e-01 8.980313e-01 7.405336e-01 8.596406e-01 7.525704e-01 5.578636e-05 1.585083e-02 5.883940e-02 7.383084e-02 1.570833e-01 5.998959e-02 1.162926e-01 6.916741e-02 1.030308e-01 1.175645e-01 2.521579e-01 4.334442e-02 1.942317e-01 3.730628e-06
<GCONST> 4.015992e+01
<MIXTURE> 5 6.238788e-02
<MEAN> 39
 1.102056e+00 1.318521e+01 -5.721544e+00 -2.037261e+00 -6.696394e+00 -6.089814e+00 1.001114e-02 -2.349177e+00 -2.817957e+00 -3.682723e+00 -5.553474e+00 3.159746e+00 7.662038e-01 -5.394115e-01 -3.135803e-02 -2.224602e-01 1.529637e-01 -5.634446e-01 -4.523249e-01 -6.773787e-01 -4.481273e-01 -9.635927e-01 -8.988571e-01 1.142417e-01 1.112020e+00 3.254654e-02 6.087639e-02 4.603291e-02 1.814742e-01 2.202272e-01 2.606473e-01 8.980138e-02 2.042651e-02 1.973995e-01 3.116794e-01 4.039439e-01 4.262119e-01 1.616786e-01 -1.935372e-03
<VARIANCE> 39
 1.511506e+01 1.532575e+01 1.780220e+01 1.509082e+01 1.502710e+01 1.445293e+01 1.787499e+01 1.931742e+01 1.692394e+01 2.476698e+01 2.190240e+01 1.799422e+01 7.817116e-03 8.554727e-01 5.802202e-01 8.916674e-01 9.103801e-01 9.301820e-01 1.464013e+00 1.576852e+00 1.739407e+00 1.714707e+00 1.574798e+00 4.773404e+00 5.368575e+00 3.140954e-04 7.486884e-02 7.964879e-02 1.266268e-01 9.626573e-02 2.119297e-01 1.568306e-01 1.697279e-01 2.053831e-01 4.088646e-01 3.889022e-01 3.409119e-01 2.579972e-01 3.599881e-05
<GCONST> 6.689281e+01
<MIXTURE> 6 6.907107e-02
<MEAN> 39
 -1.503414e+00 1.110545e+01 -2.754080e+00 -5.497104e+00 -6.465496e+00 -7.692735e+00 -6.282723e+00 1.050119e+00 -5.577559e+00 3.468595e-01 -5.031035e+00 -3.686403e+00 8.354799e-01 3.087249e-01 1.187568e+00 5.526976e-01 1.256428e+00 -8.123904e-01 -1.426066e-03 7.681951e-03 -6.835936e-01 -7.289299e-01 -2.509424e-01 -5.493714e-01 1.171620e+00 1.060176e-03 3.539245e-02 -1.184001e-01 1.038610e-01 -1.109719e-01 2.734240e-01 3.973953e-01 2.081618e-01 1.614094e-01 4.296359e-01 -1.427359e-01 3.238834e-01 5.380527e-02 2.422870e-03
<VARIANCE> 39
 5.041565e+00 1.074076e+01 2.432058e+01 1.513072e+01 1.961379e+01 2.301349e+01 4.018270e+01 3.557321e+01 2.262091e+01 2.762289e+01 3.794237e+01 7.587499e+01 7.402218e-03 2.437967e-01 4.202633e-01 1.301583e+00 9.525308e-01 1.383173e+00 1.994335e+00 1.862190e+00 2.341271e+00 2.099452e+00 4.282946e+00 3.262286e+00 1.674666e+00 1.219160e-04 2.100907e-02 4.555522e-02 1.555644e-01 2.096513e-01 4.025828e-01 3.169295e-01 3.508166e-01 3.745516e-01 4.202321e-01 4.470510e-01 3.432460e-01 5.075769e-01 9.558171e-06
<GCONST> 7.031638e+01
<MIXTURE> 7 6.249317e-02
<MEAN> 39
 2.938551e+00 1.250295e+01 -1.505161e+00 -2.309911e+00 -4.602566e+00 -1.606698e+00 3.086105e-01 6.042611e+00 -6.643623e-01 5.135068e+00 -1.392108e+00 5.192760e+00 7.209671e-01 -7.888998e-01 6.465530e-01 -6.103932e-01 -3.900632e-01 -5.773133e-01 -5.015462e-01 -7.305211e-01 -9.356763e-01 -1.751690e+00 -1.696736e+00 -1.431145e+00 -2.201500e-01 7.272991e-02 -5.586024e-01 -1.207014e+00 1.922901e-01 4.187699e-01 4.799021e-01 3.060844e-01 -1.413486e-01 -2.616672e-01 2.407468e-01 -2.992771e-01 3.788009e-01 -3.152329e-01 -2.941542e-02
<VARIANCE> 39
 1.269459e+01 4.704632e+01 1.085760e+01 1.924046e+01 1.169644e+01 1.203429e+01 2.409439e+01 3.252711e+01 3.079280e+01 1.497575e+01 4.134777e+01 3.384462e+01 1.396513e-02 8.400977e-01 2.026011e+00 1.142521e+00 9.795615e-01 1.327873e+00 1.164103e+00 1.917368e+00 2.396564e+00 1.352289e+00 1.334798e+00 2.677673e+00 1.438750e+00 1.208553e-03 1.232356e-01 3.223316e-01 2.280925e-01 2.178544e-01 3.153242e-01 4.680445e-01 2.555878e-01 5.695744e-01 3.675410e-01 1.917424e-01 5.897236e-01 4.531637e-01 3.844567e-04
<GCONST> 8.005075e+01
<MIXTURE> 8 7.134158e-02
<MEAN> 39
 2.531833e+00 1.373236e+01 -2.527431e+00 -2.189854e+00 -3.619738e+00 -6.448617e+00 -8.618660e+00 3.711615e+00 -5.269743e+00 1.021826e+00 2.728975e+00 -1.127756e+00 7.716712e-01 -2.669022e-01 1.048100e+00 -3.395073e-01 2.889906e-01 -1.123296e-02 -3.372211e-01 -1.336409e+00 -2.658451e-01 -9.599546e-01 8.732182e-01 -4.623798e-01 -2.695360e-01 2.660088e-02 -1.495789e-01 -2.133037e-01 2.318033e-01 1.971355e-02 6.627890e-03 1.986214e-01 3.858940e-01 -2.070749e-01 2.901994e-01 3.879222e-02 -1.066923e-01 7.296813e-02 -1.589460e-03
<VARIANCE> 39
 5.205020e+00 1.472571e+01 1.694960e+01 1.085089e+01 1.106545e+01 1.414404e+01 2.856660e+01 3.145963e+01 3.903854e+01 2.199718e+01 4.111322e+01 1.771555e+01 5.440520e-03 4.135528e-01 1.287864e+00 1.147652e+00 1.132263e+00 1.675740e+00 2.228462e+00 1.481405e+00 2.585574e+00 1.103230e+00 1.667090e+00 2.132358e+00 9.525881e-01 3.834946e-04 5.814770e-02 1.466836e-01 1.119960e-01 1.162118e-01 2.431027e-01 1.924609e-01 2.305532e-01 3.329526e-01 1.743174e-01 3.608057e-01 4.646955e-01 3.595672e-01 3.210187e-05
<GCONST> 6.732442e+01
<MIXTURE> 9 8.889753e-02
<MEAN> 39
 4.599902e-01 1.193783e+01 -2.325409e-02 -3.492421e+00 -7.533277e+00 -3.214837e+00 -8.724862e+00 5.706316e-01 -1.586961e+00 -4.053859e+00 3.100867e+00 -4.148829e+00 7.957680e-01 -1.076630e+00 1.273147e+00 -2.720347e-01 -6.832281e-01 -3.215725e-01 4.791540e-03 -7.688590e-01 1.003109e-01 3.739841e-02 -6.978074e-01 8.800782e-01 -6.627237e-01 5.815123e-02 -2.560355e-01 -1.052836e+00 8.773227e-02 4.502773e-01 5.391679e-01 2.821904e-01 7.608472e-01 -6.428736e-02 2.894766e-01 2.504172e-01 -2.307533e-01 4.820471e-01 -3.606309e-02
<VARIANCE> 39
 8.645298e+00 4.941994e+01 1.509664e+01 1.820639e+01 2.289283e+01 3.075076e+01 2.690211e+01 2.213474e+01 1.892938e+01 1.827944e+01 1.975410e+01 2.073512e+01 6.353986e-03 5.708672e-01 1.919479e+00 1.064916e+00 1.951614e+00 1.953761e+00 1.990955e+00 1.887191e+00 3.639311e+00 2.043835e+00 1.686012e+00 1.695851e+00 1.334376e+00 3.172390e-04 1.671625e-01 3.599422e-01 2.834465e-01 3.136066e-01 4.116013e-01 4.182619e-01 4.258869e-01 3.452172e-01 3.084547e-01 2.102883e-01 3.201785e-01 3.160554e-01 3.253967e-04
<GCONST> 7.924205e+01
<MIXTURE> 10 5.629281e-02
<MEAN> 39
 -2.196856e+00 1.563804e+01 1.236298e+00 -4.333038e+00 -6.521064e+00 -5.369050e+00 -9.043319e+00 1.068845e+00 2.235383e+00 -4.558176e+00 7.219695e+00 -1.470092e+00 8.086366e-01 6.076862e-02 1.012186e+00 -6.243978e-01 9.911316e-01 -7.374501e-01 4.875973e-01 -3.716522e-01 1.618852e-01 -8.518096e-01 -8.618490e-01 2.684849e-01 -1.753016e+00 1.299578e-04 1.664371e-01 -4.925416e-01 1.075215e-01 -3.341027e-01 7.058555e-02 3.592060e-01 1.692287e-01 1.596632e-01 -2.620858e-02 3.654400e-01 -5.454530e-01 1.047275e-01 1.460992e-03
<VARIANCE> 39
 6.214631e+00 1.675661e+01 4.885168e+00 1.545058e+01 2.013178e+01 1.479375e+01 1.342019e+01 1.345221e+01 1.999863e+01 1.724017e+01 1.826940e+01 1.360397e+01 3.309287e-03 2.438762e-01 3.129615e-01 2.839103e-01 7.607231e-01 6.300650e-01 1.285947e+00 1.021542e+00 8.943863e-01 6.322003e-01 6.530147e-01 1.087619e+00 6.862427e-01 2.456731e-04 4.931084e-02 1.040100e-01 8.370180e-02 1.653191e-01 1.726624e-01 1.927743e-01 2.254663e-01 1.250243e-01 1.044803e-01 2.313978e-01 2.087997e-01 1.340139e-01 1.219609e-05
<GCONST> 4.815412e+01
<MIXTURE> 11 6.808162e-02
<MEAN> 39
 -1.016700e+00 1.473625e+01 -3.226502e+00 3.813436e-01 -4.925728e+00 -5.076936e+00 -8.693734e-01 2.005755e-01 -2.193669e+00 -1.145086e+00 -5.429421e+00 6.361615e+00 8.310400e-01 -7.683083e-01 -5.743182e-01 -7.933038e-01 -3.052328e-01 -1.303167e+00 -1.661419e+00 -1.787356e+00 -1.376088e+00 -9.563752e-01 -8.418349e-01 -4.916342e-01 -2.652285e-01 2.573395e-02 6.085294e-02 -2.716532e-01 -1.684122e-01 -3.239668e-01 -2.158883e-01 -2.526031e-01 -9.606592e-02 -2.527404e-01 -1.482182e-01 -8.364452e-02 -5.819949e-02 -3.060264e-01 -4.720800e-03
<VARIANCE> 39
 1.367562e+01 2.463326e+01 7.916030e+00 1.407769e+01 7.404898e+00 1.457452e+01 1.489176e+01 2.561860e+01 1.352226e+01 3.590199e+01 9.594781e+00 1.439719e+01 4.243927e-03 4.902591e-01 3.775643e-01 5.039576e-01 9.301013e-01 7.191529e-01 1.023971e+00 9.165369e-01 1.600536e+00 1.649215e+00 1.044883e+00 1.478349e+00 1.600694e+00 2.182635e-04 4.227166e-02 4.460683e-02 9.819774e-02 1.364564e-01 1.148024e-01 1.888320e-01 1.750254e-01 2.156518e-01 1.465978e-01 1.680669e-01 2.288469e-01 2.375168e-01 4.054302e-05
<GCONST> 5.467225e+01
<MIXTURE> 12 7.254121e-02
<MEAN> 39
 -3.057712e+00 1.248267e+01 -3.526135e+00 -1.735757e+00 -7.007429e+00 -8.543860e+00 -2.424971e+00 -3.428572e+00 -3.830492e+00 -4.772504e+00 -3.006026e+00 -3.542628e-01 8.151791e-01 -1.852061e-01 5.925736e-01 -6.084163e-01 1.260386e+00 -1.302604e+00 6.969360e-01 -1.586391e+00 -8.882868e-01 -1.468064e+00 -6.954662e-01 -4.575205e-01 3.523263e-01 4.924110e-03 2.658434e-01 -6.076639e-01 3.926528e-01 -5.558297e-01 2.806409e-01 2.750967e-01 1.701575e-01 4.070706e-01 3.333351e-01 5.055783e-01 -5.793038e-02 1.770537e-02 4.035482e-03
<VARIANCE> 39
 1.136796e+01 3.227281e+01 1.681883e+01 2.413329e+01 1.991674e+01 3.844668e+01 5.653135e+01 3.324356e+01 3.199969e+01 2.985834e+01 3.059481e+01 3.701839e+01 7.114137e-03 5.295717e-01 1.311912e+00 8.707575e-01 2.597201e+00 1.300274e+00 2.599600e+00 1.557397e+00 2.381783e+00 1.921776e+00 3.047180e+00 1.880258e+00 2.925754e+00 1.179887e-04 7.802361e-02 3.081343e-01 1.942120e-01 2.927917e-01 4.078791e-01 6.463542e-01 6.163519e-01 4.996893e-01 3.835159e-01 4.203631e-01 3.394973e-01 2.978911e-01 1.787835e-05
<GCONST> 7.997052e+01
<MIXTURE> 13 6.565205e-02
<MEAN> 39
 -3.595540e-01 1.832482e+01 1.681029e+00 -1.626913e+00 -6.605203e+00 -3.395522e+00 -1.316229e+01 3.170522e+00 -2.045759e+00 -2.673455e-01 1.131036e+00 -4.770059e+00 7.256287e-01 -7.127233e-01 8.823587e-01 8.575460e-02 5.619469e-02 -4.838487e-01 7.391518e-03 -7.103725e-01 -3.651593e-01 -6.759782e-01 -5.816276e-01 2.596518e-01 -4.741815e-02 2.943120e-02 2.714462e-02 -3.306516e-01 -5.337264e-02 -1.609485e-01 -3.051617e-02 -1.254364e-02 2.757577e-01 -2.131552e-01 -1.046717e-01 -6.671014e-02 1.404478e-01 1.576690e-01 -6.903434e-04
<VARIANCE> 39
 1.080062e+01 1.857995e+01 2.308109e+01 1.122454e+01 3.352057e+01 1.781199e+01 3.295241e+01 2.776337e+01 3.273042e+01 2.198770e+01 1.342895e+01 5.739946e+00 5.276256e-03 5.937869e-01 8.564534e-01 7.975658e-01 1.481612e+00 9.337707e-01 9.168998e-01 1.616202e+00 2.258182e+00 1.655034e+00 8.763588e-01 9.192923e-01 1.065251e+00 1.810971e-04 1.064068e-01 5.310484e-02 1.517271e-01 1.945876e-01 1.466556e-01 1.346467e-01 1.637264e-01 2.573407e-01 3.490149e-01 1.226543e-01 1.699471e-01 2.310405e-01 2.041230e-05
<GCONST> 6.081244e+01
<MIXTURE> 14 4.104448e-02
<MEAN> 39
 2.115072e+00 1.399856e+01 -5.245624e+00 -2.619893e+00 -7.764062e+00 -1.041704e+01 -3.627575e+00 -1.037773e+00 -2.388975e+00 1.600889e+00 -8.013260e-01 3.647843e+00 8.086599e-01 -7.140596e-01 6.636577e-01 -1.054843e+00 -1.304922e+00 -1.417812e+00 -1.825616e+00 -6.457862e-01 -9.961851e-01 -1.626434e+00 -1.477908e+00 -2.058153e+00 -1.881399e+00 8.477227e-02 -5.533915e-01 -8.321186e-01 5.367337e-01 6.966316e-01 9.192252e-01 1.222743e+00 4.837401e-01 4.138226e-01 4.065957e-01 8.157442e-02 4.430211e-02 -1.937683e-01 -5.077342e-02
<VARIANCE> 39
 1.131328e+01 3.745280e+01 1.532849e+01 1.746237e+01 1.983961e+01 2.186368e+01 2.721694e+01 2.426135e+01 2.348398e+01 2.211639e+01 3.495243e+01 6.314503e+01 1.408960e-02 1.497675e+00 1.137103e+00 1.372125e+00 2.073845e+00 1.468897e+00 1.364849e+00 2.129883e+00 2.271076e+00 1.951140e+00 1.251015e+00 4.388757e+00 6.315924e+00 1.750425e-03 1.117072e-01 4.197577e-01 1.703445e-01 1.623309e-01 3.211055e-01 1.413054e-01 2.587810e-01 2.538186e-01 2.998618e-01 3.868878e-01 5.369890e-01 1.023326e+00 2.313982e-04
<GCONST> 8.369974e+01
<MIXTURE> 15 6.454696e-02
<MEAN> 39
 8.145048e-01 1.465455e+01 -4.023899e+00 -2.218036e+00 -7.075540e+00 -6.393702e+00 5.187251e-01 -6.187632e-01 -1.859045e+00 -4.903477e-01 -5.816413e+00 4.257983e+00 7.964945e-01 -1.129634e+00 -8.831635e-01 -1.072525e+00 -5.750629e-01 -8.268372e-01 -1.044763e+00 -1.446874e+00 -1.445770e+00 -1.510823e+00 -2.068113e+00 -1.948468e+00 -1.110942e+00 3.685901e-02 5.140474e-02 -1.249152e-01 2.306979e-01 2.535089e-01 2.884072e-01 7.048424e-02 4.542019e-02 1.589214e-01 1.742648e-01 2.875997e-01 3.229110e-01 1.395246e-01 -7.304452e-03
<VARIANCE> 39
 1.166825e+01 1.814204e+01 1.554651e+01 1.464821e+01 8.336322e+00 6.850114e+00 1.951072e+01 2.457313e+01 1.684001e+01 2.285458e+01 2.022129e+01 1.654087e+01 4.918882e-03 3.213197e-01 5.376107e-01 7.271633e-01 8.210508e-01 1.029411e+00 9.440912e-01 9.596244e-01 1.145320e+00 7.207091e-01 1.138194e+00 1.771486e+00 2.580016e+00 1.639247e-04 1.109057e-01 8.762642e-02 9.069919e-02 1.056488e-01 1.721123e-01 1.646457e-01 2.845847e-01 1.782721e-01 2.238181e-01 2.992861e-01 2.169271e-01 2.356001e-01 3.890799e-05
<GCONST> 5.787068e+01
<STATE> 4
<NUMMIXES> 15
<MIXTURE> 1 5.325836e-02
<MEAN> 39
 -2.060973e+00 1.073160e+01 -5.637266e+00 -4.496029e+00 -5.655158e+00 -5.183350e+00 2.586770e-01 -1.252270e+00 3.250300e+00 4.322310e+00 7.086554e+00 8.842688e+00 8.397354e-01 -1.064560e+00 -2.232038e-01 -1.786558e-01 -1.381341e-01 -4.936681e-01 -4.093129e-01 -7.911963e-01 -7.063782e-01 4.415757e-01 1.323448e+00 2.141528e+00 1.990522e+00 3.744764e-02 2.618779e-01 -1.375849e-01 3.231876e-01 3.609984e-01 2.960759e-01 2.925984e-01 2.066301e-01 4.015328e-01 2.118651e-01 1.355839e-03 -4.750196e-01 -6.183909e-01 -1.915300e-02
<VARIANCE> 39
 2.395010e+01 4.243043e+01 3.412767e+01 2.178180e+01 3.341652e+01 2.809806e+01 3.309864e+01 3.618940e+01 4.860714e+01 5.842933e+01 4.357034e+01 1.026908e+02 1.220656e-02 6.797987e-01 9.987389e-01 1.320129e+00 1.487532e+00 1.283018e+00 1.648992e+00 2.008423e+00 2.750888e+00 4.363726e+00 4.894697e+00 5.082630e+00 7.236257e+00 5.409120e-04 2.996855e-01 2.978946e-01 3.054856e-01 2.849460e-01 3.604743e-01 4.385663e-01 4.573646e-01 5.050296e-01 3.686406e-01 7.643777e-01 5.511051e-01 9.026058e-01 3.152137e-04
<GCONST> 9.479308e+01
<MIXTURE> 2 7.073582e-02
<MEAN> 39
 -1.433900e-01 1.816917e+01 2.515539e+00 8.529342e-01 -1.009235e+01 1.790551e+00 -1.578280e+01 1.238211e+00 6.135781e-01 -7.214679e+00 6.457375e+00 -3.419668e+00 8.345801e-01 -3.725781e-02 1.686624e-01 1.167818e-02 1.024239e-01 1.900937e-01 3.026131e-02 -3.266524e-01 1.845031e-01 2.992105e-01 2.152249e-01 -1.867301e-01 -4.976723e-01 8.235057e-04 1.825517e-02 -8.002593e-02 2.816069e-02 -2.402242e-02 6.233506e-02 -1.265930e-01 1.684255e-01 -1.569363e-02 -7.133539e-03 2.210374e-02 4.523917e-02 8.078013e-02 -1.111378e-03
<VARIANCE> 39
 1.750295e+01 1.256380e+01 8.536791e+00 6.551563e+00 1.721024e+01 5.726270e+00 1.337424e+01 1.485157e+01 1.439008e+01 1.061317e+01 8.386828e+00 1.470895e+01 1.339944e-03 4.757636e-02 2.043898e-01 3.017066e-01 1.434458e-01 2.657489e-01 6.073017e-01 7.136810e-01 8.461274e-01 1.211912e+00 7.822803e-01 6.390427e-01 4.264324e-01 3.754082e-05 9.954752e-03 2.959728e-02 3.831924e-02 4.324338e-02 7.260553e-02 1.016576e-01 1.516669e-01 1.351091e-01 2.220647e-01 1.344794e-01 1.013206e-01 9.046499e-02 3.730628e-06
<GCONST> 2.852864e+01
<MIXTURE> 3 6.078119e-02
<MEAN> 39
 -2.162678e+00 9.598274e+00 -4.615077e+00 -1.594283e+00 -5.565172e+00 -6.282228e+00 -3.007771e+00 -2.399853e+00 -3.075223e+00 -9.334315e-01 -2.605794e+00 3.498545e+00 8.990856e-01 -5.222864e-01 2.054953e-01 4.827490e-01 1.186565e+00 6.963451e-01 2.122498e-01 -4.818892e-01 -4.826123e-01 -4.983580e-01 -2.252734e-01 -2.611699e-01 3.288482e-01 3.038000e-02 3.638127e-01 -7.610128e-02 3.099630e-01 1.764634e-01 2.821294e-01 3.665836e-01 3.104380e-01 4.664275e-01 6.350616e-01 5.459621e-01 5.002523e-01 6.571933e-02 -1.676645e-02
<VARIANCE> 39
 1.388489e+01 4.720993e+01 1.106929e+01 1.807362e+01 1.649439e+01 3.282007e+01 1.638291e+01 1.652555e+01 1.723847e+01 1.938276e+01 3.781157e+01 5.455684e+01 2.681377e-03 2.985405e-01 3.449663e-01 3.462669e-01 4.444918e-01 6.435367e-01 8.768739e-01 1.395967e+00 1.630857e+00 9.235068e-01 9.758326e-01 2.397971e+00 3.463570e+00 1.066282e-04 1.106174e-01 1.061914e-01 1.033152e-01 2.106803e-01 1.442894e-01 2.683960e-01 1.840788e-01 2.298961e-01 2.737364e-01 2.411824e-01 4.867917e-01 5.978912e-01 1.005971e-04
<GCONST> 6.400938e+01
<MIXTURE> 4 8.088062e-02
<MEAN> 39
 -2.974892e+00 1.142451e+01 -6.454501e+00 -4.582455e+00 -9.964494e+00 -1.033485e+01 -6.127790e+00 -5.138771e+00 -7.319886e+00 -5.083572e+00 -8.300366e+00 -1.425855e+00 8.706867e-01 -2.334051e-01 -3.707182e-01 -3.131427e-01 -1.046468e-02 -2.570462e-01 -1.463719e-01 -6.272949e-01 -7.435106e-01 -5.420045e-01 -8.492256e-01 -7.149468e-01 -3.636360e-01 1.641201e-02 3.925965e-01 2.328092e-01 4.990926e-01 4.549022e-01 6.214378e-01 6.411623e-01 6.227357e-01 6.846398e-01 7.506996e-01 7.462890e-01 7.785202e-01 6.200263e-01 -5.428171e-03
<VARIANCE> 39
 1.129261e+01 3.083576e+01 1.854009e+01 1.526374e+01 1.026133e+01 1.756412e+01 3.111887e+01 1.979232e+01 2.961741e+01 1.990623e+01 2.849800e+01 4.093989e+01 7.057362e-03 3.468601e-01 4.362215e-01 4.641539e-01 7.166314e-01 8.670521e-01 6.513455e-01 1.279643e+00 1.038817e+00 1.176528e+00 1.447827e+00 2.002067e+00 1.938851e+00 1.318196e-04 4.871105e-02 1.112538e-01 8.631111e-02 1.397941e-01 1.193504e-01 2.229820e-01 2.131414e-01 2.065620e-01 1.921663e-01 2.257381e-01 3.336422e-01 2.915853e-01 4.240221e-05
<GCONST> 6.103873e+01
<MIXTURE> 5 6.781447e-02
<MEAN> 39
 -3.712970e-01 1.711733e+01 2.935548e-01 -1.914834e+00 -3.486953e+00 -5.481181e+00 -9.854000e+00 1.215151e+00 -4.866622e+00 -9.383080e-01 5.776187e+00 -3.537817e+00 8.150939e-01 -2.836684e-01 3.843162e-01 -6.963931e-02 3.368555e-01 -5.529613e-02 1.645226e-01 -2.889043e-01 -6.906234e-02 -4.747638e-01 -2.898432e-01 -3.997514e-01 -8.888943e-03 9.540683e-03 6.730376e-02 -1.371609e-01 3.256189e-02 -5.922714e-02 6.465981e-02 -5.674748e-02 4.499744e-02 -2.711977e-02 1.811178e-01 3.823170e-02 -1.050372e-02 1.466579e-01 -1.167806e-03
<VARIANCE> 39
 1.588493e+00 1.448615e+01 3.761972e+00 5.248345e+00 9.611385e+00 4.115593e+00 9.396973e+00 1.123994e+01 1.911922e+01 1.004457e+01 4.791535e+00 4.105718e+00 2.594958e-03 1.953156e-01 2.044520e-01 1.084096e-01 2.721360e-01 2.286237e-01 2.411459e-01 6.307600e-01 2.774582e-01 6.092610e-01 2.734317e-01 2.728816e-01 4.708243e-01 1.031433e-04 3.260218e-02 2.150442e-02 3.302440e-02 4.079629e-02 7.012785e-02 4.980795e-02 7.029490e-02 4.661848e-02 1.080819e-01 7.215153e-02 5.143027e-02 8.896579e-02 1.527882e-05
<GCONST> 1.742770e+01
<MIXTURE> 6 6.261367e-02
<MEAN> 39
 -2.538880e+00 1.708937e+01 1.277511e+00 -1.216530e+00 -7.614165e+00 4.758040e-01 -1.193654e+01 1.517020e+00 -1.177417e-01 -8.068491e+00 4.195520e+00 -5.256090e+00 8.306112e-01 -2.249672e-01 2.545293e-01 1.515880e-01 -3.436924e-01 2.469903e-02 4.536472e-01 6.679013e-02 8.343844e-01 3.540950e-01 -1.164639e-01 4.955406e-01 -7.467882e-02 1.595785e-02 2.664301e-01 -2.408976e-01 7.979512e-02 -5.742339e-02 2.337992e-01 -4.385471e-01 9.117509e-02 -2.132832e-01 9.982645e-02 2.499354e-01 -7.531403e-03 2.009349e-01 -2.244626e-03
<VARIANCE> 39
 1.098333e+01 1.452603e+01 8.579359e+00 1.604725e+01 8.303277e+00 9.527505e+00 2.180554e+01 2.461699e+01 3.285118e+01 3.799655e+01 9.596330e+00 1.568733e+01 4.240634e-03 9.953822e-01 8.431343e-01 7.818687e-01 8.832766e-01 7.782127e-01 9.724076e-01 9.526488e-01 1.337339e+00 1.284314e+00 1.341250e+00 8.542527e-01 6.993385e-01 1.312866e-04 1.435271e-01 1.310843e-01 1.663586e-01 1.674413e-01 1.428236e-01 1.167986e-01 1.950432e-01 3.147275e-01 2.029599e-01 2.309218e-01 1.189512e-01 1.214806e-01 1.611038e-05
<GCONST> 5.674863e+01
<MIXTURE> 7 6.164736e-02
<MEAN> 39
 -1.325298e+00 1.107809e+01 -5.490321e+00 -4.410461e-01 -7.801699e+00 -8.736066e+00 -4.528834e+00 -5.237391e+00 -3.895780e+00 -3.854222e+00 -6.661946e+00 2.992324e+00 8.522452e-01 -3.331002e-01 -2.624136e-01 -4.186183e-01 -1.584676e-02 -6.249870e-01 -7.054669e-01 -9.151596e-01 -1.013488e+00 -6.535761e-01 -5.419273e-01 -3.214974e-01 -2.428459e-01 1.602456e-02 2.337144e-01 2.416130e-01 3.066804e-01 1.266522e-01 2.754418e-01 4.535810e-01 5.019755e-01 4.498874e-01 3.334070e-01 2.640648e-01 3.429407e-01 1.207772e-01 -4.976243e-03
<VARIANCE> 39
 1.513233e+01 2.323537e+01 6.297670e+00 7.527102e+00 1.134371e+01 1.077254e+01 1.100186e+01 2.616996e+01 1.052502e+01 1.990005e+01 9.714442e+00 1.882208e+01 6.075407e-03 2.013954e-01 2.264236e-01 4.841890e-01 3.622271e-01 5.083200e-01 5.780079e-01 6.349192e-01 7.516969e-01 8.930539e-01 8.038262e-01 8.610733e-01 1.421532e+00 1.097450e-04 4.950443e-02 4.581966e-02 5.731853e-02 5.202738e-02 6.374699e-02 6.687883e-02 1.327356e-01 1.123226e-01 8.084760e-02 8.191952e-02 1.390373e-01 2.095355e-01 1.844246e-05
<GCONST> 4.025535e+01
<MIXTURE> 8 7.862847e-02
<MEAN> 39
 -4.047935e-04 1.205279e+01 -3.804428e+00 -1.487926e+00 -6.881181e+00 -5.795701e+00 -2.923816e+00 -3.130185e+00 -4.453944e+00 -3.636279e+00 -3.668502e+00 2.370695e+00 8.474597e-01 4.266192e-01 9.912190e-01 3.852416e-01 8.784521e-01 2.197983e-01 5.083864e-01 1.456813e-01 5.412219e-01 5.596736e-01 -4.731802e-02 2.509887e-01 1.038549e+00 1.048736e-02 9.559476e-03 -7.046029e-02 -2.355168e-03 -8.437207e-02 3.679022e-01 -6.620460e-02 6.533704e-02 3.123892e-01 4.428158e-01 3.561149e-01 1.189558e-01 -1.809731e-01 -8.779792e-04
<VARIANCE> 39
 1.139057e+01 1.777802e+01 1.748338e+01 1.882946e+01 2.363050e+01 3.889878e+01 3.029359e+01 3.085177e+01 1.468577e+01 3.050453e+01 4.766647e+01 4.177567e+01 7.162636e-03 1.908957e-01 5.651221e-01 8.580938e-01 9.546059e-01 1.471205e+00 1.359214e+00 1.256786e+00 1.253470e+00 1.383326e+00 1.759351e+00 2.080112e+00 1.648749e+00 1.413906e-04 4.260086e-02 8.245048e-02 1.135431e-01 1.936451e-01 1.911227e-01 2.623946e-01 2.286553e-01 4.007166e-01 2.517212e-01 3.614423e-01 2.726468e-01 2.553162e-01 1.312541e-05
<GCONST> 6.603539e+01
<MIXTURE> 9 6.164509e-02
<MEAN> 39
 -4.031378e+00 1.433537e+01 3.129604e+00 -2.801472e+00 -4.438114e+00 -6.647207e+00 -1.073088e+01 -5.577908e+00 4.199166e+00 -9.188835e+00 7.493137e+00 -5.013535e+00 9.081271e-01 -5.271273e-02 3.276902e-02 -3.074278e-02 -2.845798e-02 3.002454e-01 -1.501658e-01 1.652120e-01 -1.045909e-01 4.392747e-02 9.225652e-02 -9.751937e-03 -1.350068e-01 4.657312e-03 8.429224e-02 -9.405353e-03 -6.515205e-02 2.503897e-03 5.956734e-03 1.151354e-01 2.672043e-02 2.008508e-01 -1.513908e-01 1.682241e-01 -2.110884e-01 1.908913e-01 -3.199106e-03
<VARIANCE> 39
 5.262506e+00 1.150563e+01 3.005364e+00 4.740596e+00 1.166337e+01 7.616197e+00 1.482056e+01 9.485897e+00 1.857411e+01 2.322337e+01 1.274396e+01 1.466235e+01 1.957622e-03 9.164992e-02 3.131115e-01 2.018093e-01 2.450319e-01 6.511245e-01 6.360285e-01 3.713372e-01 1.144240e+00 5.763752e-01 2.681669e-01 5.127891e-01 7.574024e-01 3.754082e-05 1.940473e-02 5.578046e-02 3.775708e-02 5.366820e-02 9.193682e-02 1.293460e-01 4.742939e-02 1.737293e-01 1.145265e-01 1.136662e-01 8.110888e-02 1.182576e-01 5.279906e-06
<GCONST> 2.823212e+01
<MIXTURE> 10 6.168694e-02
<MEAN> 39
 -9.409662e-02 1.832994e+01 -1.397002e+00 -1.281444e+00 -6.797757e+00 -9.356055e+00 -9.526443e+00 4.508933e+00 -5.374910e+00 2.925489e+00 -3.487120e+00 8.177561e-01 8.112366e-01 -8.372765e-02 4.160304e-01 1.506529e-01 1.863597e-01 -2.665902e-01 -1.929137e-01 -4.274805e-01 -3.814392e-02 4.075465e-01 5.901096e-01 -4.597139e-01 -4.403148e-01 1.334317e-02 4.668922e-02 -2.524765e-01 -8.499475e-02 -1.705645e-01 1.046749e-01 2.105425e-01 2.456821e-01 -1.851993e-01 -1.011500e-01 -2.034326e-01 1.743064e-01 -4.326147e-02 -1.828283e-03
<VARIANCE> 39
 2.968884e+00 1.386758e+01 9.469730e+00 1.299733e+01 1.276597e+01 1.457036e+01 2.528106e+01 1.935454e+01 2.073359e+01 2.004621e+01 2.380577e+01 2.466203e+01 2.892565e-03 2.044410e-01 2.205015e-01 3.609961e-01 4.674259e-01 7.675530e-01 1.476146e+00 8.151189e-01 9.873909e-01 1.111664e+00 1.289474e+00 8.127533e-01 7.493564e-01 4.985520e-05 2.957433e-02 5.676604e-02 1.210347e-01 1.067979e-01 2.000684e-01 1.924944e-01 2.161565e-01 2.448987e-01 2.032309e-01 1.900296e-01 1.357680e-01 2.231076e-01 1.350337e-05
<GCONST> 4.827571e+01
<MIXTURE> 11 8.179574e-02
<MEAN> 39
 -2.284499e+00 6.144781e+00 -1.404616e+00 -1.314034e+00 -2.814236e+00 -2.262960e+00 -4.146031e+00 4.344868e-01 -4.889196e+00 5.107056e-01 -1.372541e+00 1.997448e+00 9.169015e-01 -1.513958e-01 -1.918200e-01 -6.011135e-02 3.035435e-01 2.207646e-01 -1.853181e-01 -2.794721e-01 -6.332144e-01 -3.623446e-01 -4.693320e-01 -4.990864e-01 -8.167677e-03 1.868547e-02 2.654929e-01 3.662234e-02 4.215118e-02 3.073437e-02 1.543750e-02 5.168723e-02 3.301530e-01 3.161548e-01 3.818496e-01 9.225381e-02 1.218481e-01 7.482745e-02 -7.903525e-03
<VARIANCE> 39
 5.743959e+00 2.357857e+01 5.678292e+00 1.206728e+01 1.136220e+01 1.717372e+01 2.294146e+01 1.478973e+01 2.334875e+01 1.836476e+01 1.270277e+01 2.243017e+01 3.719803e-03 3.282347e-01 2.824188e-01 3.947356e-01 5.296282e-01 6.201376e-01 6.625230e-01 8.169968e-01 9.623163e-01 5.698954e-01 9.438700e-01 1.178949e+00 1.102305e+00 8.607410e-05 4.302813e-02 3.943322e-02 6.533449e-02 8.648306e-02 1.441136e-01 1.241245e-01 7.702661e-02 1.167242e-01 1.878904e-01 1.658385e-01 2.198795e-01 1.722178e-01 1.570429e-05
<GCONST> 4.514643e+01
<MIXTURE> 12 9.377890e-02
<MEAN> 39
 -1.171160e+00 1.464265e+01 -1.446704e+00 -2.394952e+00 -6.048520e+00 -2.831230e+00 -1.064971e+01 -3.293436e-02 -2.980191e+00 -3.958439e+00 4.712816e+00 -4.063317e+00 8.596197e-01 -5.657794e-01 3.752158e-01 1.334513e-02 1.581641e-01 2.461370e-01 6.361555e-02 1.690252e-01 -3.846981e-01 -3.694742e-01 -6.574561e-01 2.807578e-01 1.233076e-01 2.612882e-02 2.132207e-01 -4.065776e-01 1.624614e-01 1.806536e-01 1.003691e-01 -3.813316e-03 4.343984e-01 4.540181e-02 1.797524e-01 2.171630e-01 -2.291499e-01 1.819181e-01 -1.101318e-02
<VARIANCE> 39
 5.474371e+00 4.015217e+01 1.719738e+01 1.105304e+01 2.538620e+01 2.505664e+01 1.845449e+01 2.856594e+01 2.487808e+01 1.823501e+01 2.296061e+01 1.080406e+01 3.641974e-03 2.973236e-01 5.430307e-01 6.910926e-01 7.638209e-01 1.405305e+00 1.322917e+00 1.145245e+00 1.880300e+00 1.795825e+00 1.065460e+00 1.255339e+00 1.560981e+00 1.725769e-04 3.001638e-02 1.699033e-01 1.727975e-01 2.303981e-01 2.828909e-01 1.672391e-01 1.869813e-01 3.630998e-01 2.471120e-01 1.935519e-01 1.900009e-01 1.640200e-01 3.709107e-05
<GCONST> 6.168401e+01
<MIXTURE> 13 5.325226e-02
<MEAN> 39
 -2.619169e+00 1.690974e+01 5.307912e-01 -4.320255e+00 -7.471997e+00 -3.488343e+00 -1.040987e+01 6.402047e-01 5.750160e-01 -6.702257e+00 5.379936e+00 -4.730265e+00 8.329713e-01 -5.113416e-01 3.225402e-01 -1.045331e-01 1.768547e-02 1.392128e-01 1.851311e-02 7.034467e-02 -1.244477e-02 3.175234e-02 -5.028793e-01 2.129929e-01 -1.812312e-01 2.186392e-02 9.944218e-02 -7.282733e-02 3.176207e-02 -8.572643e-02 5.527199e-02 -3.570936e-02 1.126888e-01 -2.876366e-02 -2.279894e-02 1.047281e-01 -9.643796e-02 7.250725e-02 -5.167013e-03
<VARIANCE> 39
 9.076145e+00 1.798415e+01 9.772514e+00 1.158862e+01 1.427900e+01 9.896412e+00 4.787948e+00 1.066033e+01 9.168449e+00 6.117699e+00 5.850261e+00 2.671036e+00 5.705814e-03 4.552807e-01 1.156191e-01 2.771621e-01 2.388300e-01 5.469548e-01 3.557169e-01 1.679366e-01 3.931675e-01 4.776043e-01 3.466831e-01 2.983953e-01 2.191266e-01 2.219862e-04 8.259907e-02 3.918198e-02 5.045966e-02 5.037202e-02 6.515118e-02 4.342145e-02 3.715944e-02 5.904347e-02 4.131971e-02 4.239837e-02 4.694254e-02 4.079546e-02 2.324855e-05
<GCONST> 2.206997e+01
<MIXTURE> 14 6.673106e-02
<MEAN> 39
 -5.580112e-01 1.398397e+01 -3.593232e-01 -4.365331e-01 -7.960620e+00 -8.926737e+00 -5.309092e+00 -1.124392e+00 -2.420018e+00 -2.473410e+00 4.807475e-01 -4.445955e+00 8.069398e-01 6.612863e-02 7.930321e-01 -5.306463e-01 3.163381e-02 -1.020904e-01 4.489805e-01 -1.896546e-01 -3.519865e-01 -1.757340e-01 -3.137138e-01 -4.786953e-02 6.237245e-02 3.017278e-03 2.815394e-02 -1.923789e-01 -8.790828e-02 -3.500493e-01 3.709332e-01 2.207321e-01 -2.848636e-02 8.114642e-03 2.652891e-01 8.339705e-02 -2.038791e-02 1.868249e-01 1.064272e-03
<VARIANCE> 39
 1.101572e+01 2.965248e+01 3.417959e+01 2.358374e+01 2.580175e+01 1.755594e+01 4.447692e+01 2.897359e+01 3.942398e+01 3.485062e+01 4.721212e+01 2.745024e+01 6.428033e-03 1.702606e-01 5.309966e-01 7.965705e-01 8.663686e-01 9.697531e-01 9.939106e-01 2.043494e+00 6.828246e-01 9.668279e-01 1.554786e+00 1.122715e+00 1.726341e+00 6.448832e-05 2.955655e-02 8.594497e-02 1.590869e-01 1.558389e-01 1.150513e-01 1.983609e-01 2.692299e-01 2.327231e-01 3.081920e-01 2.000214e-01 2.229097e-01 2.641814e-01 7.098648e-06
<GCONST> 6.202624e+01
<MIXTURE> 15 4.474992e-02
<MEAN> 39
 -2.125276e+00 1.332938e+01 -6.071368e+00 -1.291448e+00 -8.561181e+00 -8.764871e+00 -5.293671e+00 -2.792687e+00 -5.839784e+00 -2.733302e-01 -8.001843e+00 5.862066e+00 8.757472e-01 -5.327156e-01 -9.896197e-01 -1.055585e+00 -8.179574e-01 -1.213463e+00 -1.635196e+00 -1.751290e+00 -1.791553e+00 -1.162280e+00 -1.123481e+00 -8.875180e-01 -6.811119e-01 1.908612e-02 2.503819e-01 1.360438e-01 1.871262e-01 2.870761e-02 2.868037e-01 2.939782e-01 4.026760e-01 3.145891e-01 3.017369e-01 1.472851e-01 2.474891e-01 4.566149e-02 -6.678181e-03
<VARIANCE> 39
 1.227986e+01 1.560189e+01 1.424701e+01 1.886350e+01 8.599875e+00 1.236837e+01 1.555132e+01 1.895930e+01 1.605185e+01 1.347386e+01 8.419736e+00 1.008760e+01 4.012171e-03 2.367906e-01 2.472987e-01 3.641894e-01 8.262352e-01 5.893553e-01 4.818107e-01 5.828266e-01 1.630167e+00 8.113934e-01 1.219879e+00 9.676935e-01 8.875064e-01 4.631601e-05 5.827333e-02 8.011822e-02 4.336250e-02 8.898516e-02 1.250072e-01 1.651392e-01 1.924288e-01 1.558842e-01 1.269081e-01 1.319850e-01 1.088701e-01 1.509236e-01 1.264905e-05
<GCONST> 4.390126e+01
<STATE> 5
<NUMMIXES> 15
<MIXTURE> 1 9.684519e-02
<MEAN> 39
 -2.055151e+00 1.116315e+01 -6.361214e+00 -3.136543e+00 -9.030701e+00 -9.122623e+00 -5.780280e+00 -5.067106e+00 -6.289319e+00 -3.717461e+00 -7.053351e+00 1.099831e+00 8.845704e-01 2.822954e-01 2.213507e-01 3.537324e-01 5.406576e-01 3.984478e-01 4.820713e-01 3.721622e-01 3.171001e-01 3.725989e-01 2.484624e-01 5.379215e-01 2.293207e-01 8.126019e-03 1.424745e-01 2.127320e-01 3.010931e-01 1.976265e-01 3.474571e-01 3.269685e-01 4.713923e-01 4.916443e-01 3.730946e-01 3.452861e-01 3.631993e-01 2.432024e-01 -3.609024e-03
<VARIANCE> 39
 1.109993e+01 3.228490e+01 1.351594e+01 1.593722e+01 1.382920e+01 1.640229e+01 1.779494e+01 2.320795e+01 2.232318e+01 2.221765e+01 2.346450e+01 3.635151e+01 6.745940e-03 2.116980e-01 3.459628e-01 3.948598e-01 5.508413e-01 6.520635e-01 7.782936e-01 9.319483e-01 8.400057e-01 6.743476e-01 9.053649e-01 8.302686e-01 9.343276e-01 5.123406e-05 3.734873e-02 5.332859e-02 6.900708e-02 1.022064e-01 1.049761e-01 1.229444e-01 1.351345e-01 1.379975e-01 1.503939e-01 1.634932e-01 2.224276e-01 1.542592e-01 8.246240e-06
<GCONST> 4.835759e+01
<MIXTURE> 2 8.097883e-02
<MEAN> 39
 -3.296786e+00 6.994467e+00 -1.048881e+00 -3.062449e+00 -3.170163e+00 -3.856017e+00 -1.797171e+00 3.421417e-01 -3.629195e-01 1.390995e+00 4.306487e+00 5.440590e+00 9.715008e-01 2.372842e-02 -1.278924e-02 1.277413e-03 -2.947609e-02 1.077256e-01 5.130048e-02 -1.541531e-02 9.147906e-03 -1.671108e-02 4.733361e-02 -1.838967e-02 -7.640461e-02 -1.264780e-03 1.393782e-02 -2.812814e-03 2.872256e-04 5.167012e-03 -3.613133e-03 -1.425311e-02 -5.950867e-03 1.548319e-02 -4.816405e-03 8.662780e-03 -9.590186e-03 -2.781265e-02 -6.292003e-04
<VARIANCE> 39
 6.108089e+00 1.587636e+01 2.502614e+00 4.259125e+00 6.058908e+00 8.231285e+00 1.077667e+01 5.379569e+00 2.662928e+01 2.899696e+01 2.935112e+01 3.897253e+01 8.178985e-04 3.312817e-02 7.933021e-02 1.033422e-01 1.013999e-01 1.491893e-01 1.029279e-01 1.917691e-01 1.898041e-01 1.137933e-01 2.056136e-01 1.438990e-01 1.581510e-01 3.754082e-05 3.865591e-03 1.157718e-02 1.510595e-02 1.415177e-02 2.291903e-02 1.436504e-02 2.290436e-02 2.615254e-02 2.078108e-02 2.926934e-02 2.476900e-02 3.250988e-02 3.730628e-06
<GCONST> -3.479482e+00
<MIXTURE> 3 6.814805e-02
<MEAN> 39
 2.200118e-01 1.141344e+01 -4.309511e+00 1.911460e+00 -5.013224e+00 -5.975600e+00 -5.317652e+00 -2.589481e+00 -6.702938e+00 -1.194235e+00 -6.427194e+00 4.617576e+00 9.171103e-01 1.407558e-01 2.602375e-01 2.428833e-01 3.358365e-01 2.868939e-01 1.689358e-01 2.112864e-01 2.465314e-01 3.818790e-01 3.042095e-01 2.186471e-02 -2.420290e-02 3.579839e-03 -7.659299e-02 1.052347e-02 1.109752e-02 -1.247371e-01 -7.647531e-02 -6.266214e-02 1.703945e-02 9.116270e-02 8.189663e-02 -1.263813e-02 2.693833e-03 -1.017062e-01 -1.899771e-03
<VARIANCE> 39
 7.758063e+00 9.801563e+00 4.876994e+00 1.258770e+01 1.025054e+01 2.066023e+01 1.657139e+01 5.152050e+01 7.100146e+00 1.232161e+01 1.596749e+01 2.534718e+01 3.078369e-03 7.368709e-02 1.141758e-01 2.363526e-01 3.963533e-01 2.574450e-01 3.705627e-01 2.658914e-01 5.614862e-01 3.881453e-01 4.559881e-01 3.004288e-01 4.758572e-01 3.754082e-05 1.402833e-02 2.494594e-02 6.211536e-02 5.707019e-02 4.289265e-02 6.595530e-02 6.777245e-02 6.421371e-02 5.947264e-02 6.519233e-02 6.872790e-02 6.956346e-02 4.673636e-06
<GCONST> 2.358373e+01
<MIXTURE> 4 8.574527e-02
<MEAN> 39
 -3.549405e+00 1.566402e+01 1.237168e+00 -2.268745e+00 -5.858211e+00 -2.066108e+00 -8.964211e+00 8.146743e-01 7.865909e-01 -6.456773e+00 6.468614e+00 -4.684284e+00 8.823398e-01 3.201434e-02 4.648037e-02 3.317701e-02 1.664454e-03 5.303862e-02 -1.761553e-02 -3.096673e-02 -2.575034e-02 2.112157e-02 9.430621e-02 1.647613e-02 -6.765012e-02 5.938016e-04 1.814562e-02 -4.642667e-02 1.795943e-02 3.679834e-04 4.045004e-02 -4.410907e-02 -1.355350e-02 6.719198e-03 4.389757e-02 2.053559e-02 -4.194815e-02 5.580480e-02 -1.320524e-03
<VARIANCE> 39
 1.513406e+01 2.050206e+01 9.138838e+00 9.933043e+00 1.161980e+01 5.448098e+00 6.384033e+00 1.062433e+01 4.995953e+00 1.194947e+01 6.570512e+00 8.040110e+00 3.965105e-03 7.398076e-02 8.106031e-02 1.489085e-01 2.337215e-01 1.956400e-01 1.917791e-01 1.311332e-01 2.039118e-01 2.421854e-01 1.811434e-01 1.260799e-01 1.738371e-01 3.754082e-05 1.014919e-02 1.843460e-02 3.142831e-02 2.523208e-02 3.413606e-02 3.100598e-02 2.089646e-02 3.351625e-02 4.110261e-02 3.005209e-02 2.028563e-02 2.975064e-02 3.730628e-06
<GCONST> 3.851358e+00
<MIXTURE> 5 6.382912e-02
<MEAN> 39
 -1.049660e+00 1.371613e+01 -5.409877e+00 -3.142402e+00 -3.262854e+00 -9.135932e+00 2.753657e-01 -1.705546e+00 -2.470462e+00 -3.380477e+00 -4.791122e+00 1.963742e+00 7.907923e-01 4.086569e-02 8.252014e-02 6.604365e-02 1.006156e-01 1.051417e-01 1.199666e-01 2.350690e-01 3.283953e-02 1.338011e-01 -1.369697e-02 3.248234e-02 6.962281e-02 4.922717e-04 2.708279e-03 -2.611322e-02 -2.307118e-02 -4.857351e-02 -2.181391e-02 -6.371830e-02 -5.432805e-02 -4.856372e-02 -1.813022e-02 2.486666e-02 -3.946484e-02 -5.739479e-02 -7.950639e-04
<VARIANCE> 39
 3.855047e+00 3.959872e+00 6.450878e+00 1.117480e+01 2.128104e+01 2.698857e+01 7.652793e+00 1.524535e+01 1.869591e+01 1.345693e+01 7.736756e+00 1.137738e+01 1.153463e-02 3.539452e-02 5.997326e-02 6.826060e-02 2.072401e-01 1.562106e-01 2.036322e-01 1.311954e-01 2.363308e-01 1.657383e-01 1.660981e-01 2.049542e-01 1.748107e-01 3.754082e-05 6.657544e-03 9.363944e-03 1.388145e-02 3.061933e-02 1.964316e-02 4.185151e-02 2.542877e-02 3.473826e-02 2.631917e-02 2.648330e-02 2.938249e-02 2.864095e-02 3.730628e-06
<GCONST> 2.460127e+00
<MIXTURE> 6 5.027347e-02
<MEAN> 39
 -1.923718e+00 1.121206e+01 -5.632745e+00 -3.867158e+00 -6.019238e+00 -5.594266e+00 -1.719626e+00 -1.153699e+00 2.453974e+00 3.210315e+00 6.358432e+00 7.335489e+00 8.706503e-01 -2.521856e-01 2.065824e-01 2.592612e-01 4.519634e-01 4.815905e-02 1.365415e-01 -6.666919e-02 -1.026958e-01 7.678857e-01 1.197949e+00 1.051147e+00 9.557771e-01 2.276597e-02 2.548427e-01 -2.719564e-02 1.267721e-01 1.192892e-01 9.819778e-02 6.777106e-02 2.600839e-01 1.683466e-01 1.306257e-02 -2.133352e-01 -4.886636e-01 -5.179102e-01 -8.993698e-03
<VARIANCE> 39
 1.853708e+01 4.151529e+01 2.982942e+01 2.370602e+01 2.888542e+01 2.963679e+01 2.934873e+01 4.563495e+01 5.772053e+01 6.912487e+01 4.994938e+01 9.474313e+01 8.518858e-03 6.625883e-01 1.120349e+00 1.434297e+00 1.216255e+00 1.424618e+00 1.880756e+00 2.978170e+00 1.891955e+00 2.659522e+00 2.927912e+00 4.010385e+00 4.206925e+00 1.613096e-04 1.392299e-01 1.521693e-01 1.697548e-01 3.092448e-01 3.130612e-01 2.778495e-01 2.811787e-01 4.728982e-01 3.794396e-01 5.472257e-01 4.598773e-01 7.141551e-01 8.431434e-05
<GCONST> 8.661617e+01
<MIXTURE> 7 6.057825e-02
<MEAN> 39
 8.745156e-02 1.131137e+01 1.109572e-01 2.019895e+00 -7.831345e+00 4.950275e-02 -9.911706e+00 4.885912e+00 -2.516129e+00 -4.383245e+00 -1.026775e+00 -2.351635e+00 9.049366e-01 2.346235e-01 -9.470793e-02 5.947046e-03 3.553514e-02 1.355395e-01 -3.641673e-01 4.177322e-01 1.030964e-01 1.095706e-01 2.576738e-01 -1.123171e-01 -2.778786e-02 3.193626e-03 -5.678606e-02 1.984746e-02 6.519131e-03 -1.134654e-01 1.896785e-01 -1.650055e-01 1.465462e-01 -1.943562e-01 4.515999e-02 4.010850e-02 1.494417e-01 -3.164538e-03 -1.574224e-03
<VARIANCE> 39
 1.006561e+01 2.638447e+01 7.964231e+00 1.652106e+01 1.161988e+01 1.902521e+01 2.141596e+01 2.515047e+01 4.393214e+01 1.955441e+01 2.365375e+01 1.826432e+01 3.295910e-03 1.795722e-01 2.777358e-01 7.004983e-01 5.525046e-01 9.301827e-01 8.122126e-01 7.906435e-01 1.338950e+00 1.442299e+00 8.849319e-01 5.089582e-01 6.478268e-01 3.754082e-05 1.911252e-02 3.631821e-02 1.276579e-01 9.147678e-02 1.136831e-01 1.789725e-01 1.549042e-01 2.480488e-01 3.053221e-01 1.537608e-01 1.199038e-01 1.312345e-01 3.730628e-06
<GCONST> 4.712256e+01
<MIXTURE> 8 9.293793e-02
<MEAN> 39
 -1.341908e+00 1.721043e+01 -9.034105e-02 -8.537843e-01 -2.793341e+00 -4.841451e+00 -1.071546e+01 1.083918e+00 -3.368343e+00 -1.399946e+00 4.153867e+00 -2.544349e+00 8.284078e-01 8.534287e-03 1.175248e-02 -8.312286e-02 -2.254474e-01 1.022464e-01 -6.634414e-02 1.177475e-01 -1.696978e-01 9.088956e-02 -6.035273e-02 1.955530e-02 8.629377e-02 9.227882e-04 2.999870e-02 -1.638540e-02 1.053504e-02 -5.687654e-02 -1.170861e-02 -2.600067e-04 4.237548e-02 2.736707e-02 1.125496e-03 -3.790730e-03 3.481287e-02 -9.877001e-03 -1.288512e-03
<VARIANCE> 39
 1.834837e+00 8.464538e+00 3.458965e+00 6.214392e+00 3.116405e+00 7.111486e+00 1.440274e+01 1.437643e+01 2.128451e+01 1.021051e+01 8.372536e+00 1.328732e+01 3.234586e-03 4.642607e-02 6.445181e-02 7.818211e-02 1.258917e-01 1.255206e-01 1.802772e-01 1.971013e-01 2.043672e-01 1.709294e-01 2.255801e-01 1.665155e-01 2.039065e-01 3.754082e-05 5.658589e-03 1.276776e-02 1.438390e-02 2.372828e-02 2.254242e-02 2.716517e-02 4.098079e-02 2.910706e-02 4.122606e-02 2.923469e-02 2.144244e-02 3.491402e-02 3.730628e-06
<GCONST> -2.048063e+00
<MIXTURE> 9 4.860166e-02
<MEAN> 39
 -1.604785e+00 1.183630e+01 -6.257534e+00 -2.153361e+00 -7.014427e+00 -8.983688e+00 -5.304125e+00 -1.571167e+00 -7.381319e+00 -3.195937e+00 -6.078477e+00 3.600408e+00 8.565308e-01 -1.390008e-01 -3.283971e-01 -5.063325e-01 -4.022929e-01 -4.171979e-01 -5.159914e-01 -4.208376e-01 -3.306432e-01 -2.375585e-01 -3.284855e-01 -1.965212e-01 -2.202068e-01 1.244269e-03 1.872454e-03 -6.536628e-03 3.665346e-02 -4.788971e-02 1.946539e-03 5.751823e-02 6.420527e-02 1.548279e-02 7.034390e-02 4.276074e-02 2.961523e-02 -2.217420e-02 -1.245923e-03
<VARIANCE> 39
 8.367363e+00 7.736763e+00 3.679344e+00 1.480887e+01 1.321986e+01 1.873935e+01 2.126848e+01 2.766220e+01 2.180331e+01 1.217429e+01 8.002009e+00 1.534713e+01 9.386288e-03 3.516605e-02 7.515623e-02 5.797548e-02 1.975120e-01 2.398994e-01 1.883145e-01 1.982910e-01 2.356060e-01 2.959076e-01 1.572032e-01 1.976882e-01 2.877728e-01 3.754082e-05 1.087400e-02 1.368687e-02 3.364197e-02 3.535420e-02 5.140850e-02 5.731495e-02 6.160916e-02 5.721412e-02 4.095929e-02 3.958397e-02 4.721593e-02 5.577365e-02 3.730628e-06
<GCONST> 1.288268e+01
<MIXTURE> 10 3.394289e-02
<MEAN> 39
 5.855950e-01 1.621381e+01 3.907335e-01 -2.831863e+00 -6.251657e+00 -9.175606e+00 -6.444645e+00 7.329729e+00 -5.701478e+00 8.856406e+00 -6.869510e+00 1.942187e+00 8.271646e-01 5.489567e-02 2.513835e-01 -6.680652e-02 2.812809e-02 7.007572e-02 -1.460114e-01 3.199128e-01 -1.665145e-01 3.321074e-01 -1.440928e-01 -2.125089e-02 4.957867e-02 1.539483e-03 3.723540e-02 -7.391110e-02 -6.087472e-02 5.841851e-02 2.548819e-02 1.457792e-02 -5.752195e-02 -5.654702e-02 1.081249e-02 -7.891957e-02 9.496263e-02 -2.898149e-02 -9.550075e-04
<VARIANCE> 39
 1.559555e+00 2.152038e+01 6.492751e+00 1.557244e+00 5.514165e+00 4.362105e+00 7.821406e+00 6.683087e+00 9.812654e+00 4.468341e+00 9.083026e+00 5.525274e+00 8.178985e-04 7.202939e-02 1.378086e-01 3.541301e-01 1.712679e-01 3.371358e-01 3.681229e-01 3.092657e-01 8.101895e-01 4.381725e-01 4.143889e-01 7.862260e-01 9.291428e-01 3.754082e-05 6.907562e-03 2.701247e-02 5.760635e-02 2.704959e-02 5.765388e-02 7.801657e-02 6.881135e-02 1.016783e-01 1.219425e-01 8.051178e-02 9.329105e-02 1.763171e-01 3.730628e-06
<GCONST> 1.548531e+01
<MIXTURE> 11 8.256130e-02
<MEAN> 39
 -1.821676e+00 9.935971e+00 -2.018501e+00 -1.408261e+00 -3.595211e+00 -2.603771e+00 -1.965178e+00 -1.319674e+00 -2.021543e+00 -1.244881e+00 1.087107e+00 4.425144e+00 9.125032e-01 6.442592e-02 1.149916e-01 2.024268e-01 5.022513e-01 3.114023e-01 7.405456e-02 4.829690e-02 2.525348e-01 1.733712e-01 8.604442e-02 3.728418e-01 5.762711e-01 1.265712e-02 7.460320e-02 -6.750109e-02 -1.166553e-01 -1.088503e-01 -1.034039e-01 -7.841499e-02 -7.369578e-02 7.864006e-02 8.391247e-02 1.198695e-01 -1.364469e-01 -2.480127e-01 -5.082954e-03
<VARIANCE> 39
 8.492782e+00 4.828127e+01 8.277267e+00 9.626986e+00 1.550170e+01 1.914978e+01 2.239161e+01 1.463362e+01 1.672923e+01 2.353995e+01 3.627468e+01 3.998420e+01 4.226460e-03 2.381607e-01 2.838629e-01 3.049839e-01 4.634124e-01 5.432653e-01 5.691339e-01 6.752930e-01 5.092938e-01 6.028470e-01 8.301202e-01 1.479131e+00 9.292731e-01 4.597105e-05 4.197332e-02 3.686322e-02 4.526110e-02 7.860280e-02 9.604908e-02 1.154296e-01 8.792336e-02 1.652842e-01 1.430955e-01 1.163840e-01 2.404032e-01 1.588477e-01 9.339773e-06
<GCONST> 4.430749e+01
<MIXTURE> 12 4.125397e-02
<MEAN> 39
 -4.113251e+00 2.131653e+01 8.543037e-01 -3.577327e+00 -3.772402e+00 -9.032758e+00 -8.550251e+00 -4.061557e+00 8.476187e-01 -7.455839e+00 7.292695e+00 -2.625365e+00 9.120231e-01 -5.682064e-02 6.912202e-02 -3.922683e-02 -3.107501e-02 -2.744414e-02 1.535732e-02 8.211192e-03 1.006213e-01 6.153018e-02 1.218772e-01 -8.572921e-02 1.040821e-01 4.795953e-04 -2.322616e-03 -4.307894e-02 -3.561968e-03 -1.451271e-02 -3.005054e-02 2.588428e-02 9.333290e-03 2.488903e-03 9.800204e-03 3.432616e-02 6.405195e-03 3.501371e-02 -4.560578e-04
<VARIANCE> 39
 1.902056e+00 6.161792e+00 9.401058e+00 2.342591e+00 2.359261e+00 4.276574e+00 3.950788e+00 3.199589e+00 5.253508e+00 5.810028e+00 8.746680e+00 1.357391e+00 2.454309e-03 3.418810e-02 9.104894e-02 8.695643e-02 6.027613e-02 1.094643e-01 1.268733e-01 6.621005e-02 1.711747e-01 1.351168e-01 1.920692e-01 9.721255e-02 7.947872e-02 3.754082e-05 4.864121e-03 1.645897e-02 1.269917e-02 1.202651e-02 1.457191e-02 2.046805e-02 1.312019e-02 2.444599e-02 2.034822e-02 3.380103e-02 1.503266e-02 1.363211e-02 3.730628e-06
<GCONST> -1.917888e+01
<MIXTURE> 13 8.319508e-02
<MEAN> 39
 5.473783e-01 1.452721e+01 -2.125318e+00 -1.681029e+00 -2.940225e+00 -6.725229e+00 -4.873673e+00 -2.113744e+00 -4.155112e+00 -1.025487e+00 -1.130303e+00 1.706624e+00 8.732222e-01 1.033222e-01 3.232111e-01 -1.382267e-01 4.103067e-01 1.926258e-01 6.497138e-02 7.618163e-02 -2.332132e-02 7.912351e-02 -9.600743e-02 1.708207e-01 4.820080e-01 2.296547e-03 -7.252702e-02 -2.360663e-01 -1.335924e-01 -1.021236e-01 -1.793357e-01 -1.709307e-01 -1.237310e-01 -6.143907e-02 -2.246389e-03 -2.363027e-02 -2.568682e-02 -2.612260e-01 -6.092119e-05
<VARIANCE> 39
 1.022923e+01 1.762420e+01 2.261103e+01 1.137527e+01 3.085125e+01 3.583577e+01 1.843812e+01 2.113471e+01 2.063823e+01 3.326669e+01 5.829790e+01 2.762286e+01 5.292540e-03 1.165478e-01 5.180445e-01 5.311914e-01 7.548635e-01 8.864013e-01 9.636918e-01 1.245370e+00 1.066127e+00 9.449689e-01 1.128536e+00 8.161700e-01 9.269597e-01 3.754082e-05 2.437175e-02 6.945294e-02 1.346691e-01 1.275124e-01 1.653984e-01 1.855016e-01 1.799316e-01 1.805717e-01 1.733510e-01 2.224867e-01 2.546037e-01 1.453668e-01 3.942930e-06
<GCONST> 5.371741e+01
<MIXTURE> 14 5.460931e-02
<MEAN> 39
 -4.228120e-01 1.320285e+01 -2.487262e+00 2.065227e+00 -4.134781e+00 -7.490597e+00 -1.643636e+00 -2.919828e+00 -2.319381e+00 -1.650976e+00 -5.606943e+00 4.722542e+00 8.940794e-01 -9.945738e-02 -3.180742e-02 -1.624916e-01 1.668630e-01 -2.097841e-01 -1.667926e-01 -3.882096e-01 -1.584368e-01 -8.151052e-02 6.050775e-02 -2.418086e-01 -4.397032e-01 7.159231e-03 -7.175738e-02 -1.521521e-01 -1.480375e-01 -2.575434e-01 -1.730213e-01 -3.918675e-02 -4.407707e-02 -1.670841e-01 -1.877187e-01 -1.149153e-01 1.377599e-02 -7.846025e-02 -3.661068e-03
<VARIANCE> 39
 1.408749e+01 1.475597e+01 6.833442e+00 1.259815e+01 1.152897e+01 3.477736e+01 1.673656e+01 4.572977e+01 1.740780e+01 1.868838e+01 2.421033e+01 3.038218e+01 3.487135e-03 8.070455e-02 1.561005e-01 2.251539e-01 3.036403e-01 2.976202e-01 4.832816e-01 2.858730e-01 4.309027e-01 3.544698e-01 3.036435e-01 4.696814e-01 3.815646e-01 4.388778e-05 1.801172e-02 3.203486e-02 3.557953e-02 7.411531e-02 7.661169e-02 7.591117e-02 8.790483e-02 8.643907e-02 1.116835e-01 9.943900e-02 9.107021e-02 9.508486e-02 7.426577e-06
<GCONST> 3.127547e+01
<MIXTURE> 15 5.649608e-02
<MEAN> 39
 -1.683277e+00 1.624565e+01 5.040123e-01 -2.193577e+00 -8.812698e+00 -5.392749e+00 -1.241497e+01 1.379718e+00 -1.057219e+00 -4.736012e+00 3.201972e+00 -7.323586e+00 8.547127e-01 -9.327961e-02 2.080069e-01 4.108689e-02 -1.610204e-01 -8.596208e-02 -8.954621e-02 1.722345e-02 2.534018e-02 6.233767e-03 -2.463141e-01 1.368594e-01 -2.310251e-01 5.941610e-03 9.269483e-02 -1.661283e-01 -1.340045e-02 -1.131976e-01 1.360007e-01 2.258483e-02 1.171444e-01 -1.960064e-01 -9.926669e-03 7.521202e-02 -3.967123e-03 2.175435e-01 -1.691644e-03
<VARIANCE> 39
 4.490156e+00 2.213601e+01 1.376720e+01 2.037884e+01 1.824714e+01 2.267725e+01 2.367809e+01 1.985509e+01 3.143599e+01 3.089700e+01 2.580918e+01 2.049568e+01 5.154023e-03 1.833533e-01 4.060641e-01 3.865001e-01 5.639547e-01 4.257030e-01 7.750328e-01 8.146848e-01 7.953876e-01 1.046773e+00 8.875564e-01 9.176283e-01 5.929419e-01 7.725366e-05 2.290968e-02 6.038585e-02 1.177226e-01 1.387882e-01 1.026396e-01 1.609527e-01 1.690581e-01 1.228326e-01 2.245453e-01 1.516730e-01 1.491964e-01 1.166464e-01 9.127316e-06
<GCONST> 4.844860e+01
<STATE> 6
<NUMMIXES> 15
<MIXTURE> 1 7.442306e-02
<MEAN> 39
 -1.244943e+00 8.131874e+00 -5.297074e+00 -2.553365e+00 -7.727828e+00 -7.161668e+00 -4.931268e+00 -3.979443e+00 -3.631258e+00 -4.514161e+00 -5.689279e+00 -7.200546e-01 9.067034e-01 2.220010e-01 4.112963e-01 3.147032e-01 3.882394e-01 4.806291e-01 5.318211e-01 4.862939e-01 4.711393e-01 4.961923e-01 3.925776e-01 3.328842e-01 1.839137e-01 -1.353408e-03 1.393175e-01 2.769207e-01 3.340745e-01 3.048276e-01 4.304165e-01 3.994833e-01 4.693442e-01 3.723600e-01 3.368191e-01 3.838117e-01 3.253870e-01 2.526205e-01 -7.036455e-04
<VARIANCE> 39
 1.612029e+01 5.142581e+01 9.122865e+00 1.115829e+01 1.898203e+01 2.603600e+01 1.485954e+01 1.872954e+01 1.497251e+01 1.906090e+01 2.115835e+01 2.415920e+01 6.916834e-03 8.284414e-02 1.603066e-01 2.924301e-01 3.036317e-01 4.950177e-01 4.244616e-01 4.405006e-01 5.357080e-01 4.867320e-01 4.965438e-01 3.659278e-01 3.201386e-01 3.754082e-05 1.546604e-02 4.447033e-02 5.724894e-02 5.093221e-02 8.174099e-02 6.921815e-02 7.721388e-02 8.773866e-02 1.127333e-01 6.868382e-02 1.031599e-01 1.082683e-01 3.730628e-06
<GCONST> 3.312389e+01
<MIXTURE> 2 6.427695e-02
<MEAN> 39
 -1.241399e+00 1.049698e+00 -7.536370e-01 -8.064717e-01 -2.830370e-01 -7.127261e-01 -9.569912e-01 -1.131511e+00 -1.197821e+00 -4.924417e-01 -2.260388e-01 -3.353150e-01 9.770629e-01 3.122959e-01 4.521123e-01 4.937824e-01 5.748809e-01 8.619654e-01 6.451974e-01 5.591885e-01 4.455865e-01 7.135401e-01 5.985420e-01 4.406851e-01 4.020210e-01 -2.060834e-03 -2.384156e-02 -3.287549e-02 -7.585691e-02 -7.245843e-02 -1.504119e-01 -4.661268e-02 -8.196499e-02 -9.534611e-02 -2.964413e-02 -9.225059e-02 -4.356305e-02 1.123640e-02 -7.943784e-04
<VARIANCE> 39
 2.547366e+00 3.344882e+00 6.972542e+00 8.258661e+00 6.185762e+00 8.491494e+00 1.018200e+01 7.726635e+00 9.778662e+00 8.493176e+00 1.224181e+01 1.085007e+01 8.178985e-04 9.714514e-02 2.474305e-01 4.445359e-01 3.517154e-01 5.460001e-01 5.092435e-01 8.278058e-01 1.081828e+00 4.774586e-01 5.810814e-01 6.118408e-01 5.983135e-01 3.754082e-05 2.127416e-02 4.694789e-02 6.662360e-02 8.150834e-02 1.220937e-01 1.186089e-01 1.509573e-01 1.393991e-01 1.084927e-01 9.789764e-02 1.280493e-01 8.033740e-02 3.730628e-06
<GCONST> 2.710652e+01
<MIXTURE> 3 7.393485e-02
<MEAN> 39
 -1.906983e-01 1.303062e+01 -3.849839e+00 -2.504984e-01 -6.268874e+00 -7.069530e+00 -2.509578e+00 -1.507676e+00 -2.775632e+00 -2.020329e+00 -5.105115e+00 2.160642e+00 8.881772e-01 -3.055157e-01 -6.262743e-01 -8.617563e-01 -7.730950e-01 -8.886282e-01 -8.947499e-01 -8.376288e-01 -9.200018e-01 -7.837021e-01 -8.131658e-01 -6.860126e-01 -7.953267e-01 6.009084e-04 -2.301444e-02 -2.162123e-02 -1.790040e-02 -8.288649e-02 -3.364015e-02 -5.116677e-03 -4.871199e-02 -6.816247e-03 -9.453667e-03 -4.215419e-02 -9.134998e-03 -4.880469e-02 -1.227832e-03
<VARIANCE> 39
 1.366297e+01 2.594104e+01 1.129249e+01 1.325895e+01 1.626305e+01 2.317456e+01 1.874027e+01 2.484759e+01 1.969346e+01 2.551505e+01 2.747064e+01 3.086920e+01 5.774498e-03 7.386692e-02 1.867436e-01 2.236496e-01 3.066558e-01 2.865556e-01 3.380532e-01 4.429054e-01 4.955380e-01 5.859682e-01 5.202928e-01 7.125499e-01 5.577111e-01 3.754082e-05 1.468874e-02 2.724870e-02 3.902711e-02 4.691312e-02 7.721865e-02 9.077820e-02 1.075259e-01 1.092414e-01 7.924236e-02 1.007184e-01 6.836472e-02 8.385526e-02 3.730628e-06
<GCONST> 3.330298e+01
<MIXTURE> 4 7.513677e-02
<MEAN> 39
 -1.182230e+00 1.218166e+01 -4.053635e+00 -6.593113e-01 -7.091548e+00 -5.998306e+00 -2.479970e+00 -1.878658e+00 -2.523560e+00 -2.080812e+00 -4.619484e+00 1.921383e+00 8.966226e-01 4.268971e-01 6.273723e-01 7.857006e-01 8.388295e-01 1.019735e+00 1.033747e+00 1.089143e+00 9.147761e-01 9.637610e-01 7.753358e-01 8.391529e-01 6.187918e-01 5.933921e-04 9.307289e-03 -2.318485e-02 1.465821e-02 -4.263765e-02 6.113610e-02 -2.431701e-02 4.741175e-02 -3.209456e-02 -4.348851e-02 7.002187e-02 7.382680e-02 -8.191273e-02 -1.349588e-03
<VARIANCE> 39
 1.843051e+01 2.893910e+01 1.173238e+01 1.481363e+01 1.021156e+01 1.595014e+01 1.367670e+01 1.843335e+01 2.020127e+01 2.179573e+01 2.290646e+01 4.290470e+01 6.151441e-03 1.562170e-01 2.276801e-01 2.017663e-01 3.501735e-01 4.144613e-01 6.277377e-01 6.091446e-01 5.046985e-01 6.455067e-01 6.618062e-01 4.928035e-01 6.605152e-01 3.754082e-05 1.441434e-02 2.560183e-02 4.729893e-02 5.856970e-02 7.006841e-02 7.557249e-02 8.025929e-02 8.939262e-02 9.762603e-02 9.847080e-02 1.083789e-01 9.545628e-02 3.730628e-06
<GCONST> 3.526244e+01
<MIXTURE> 5 7.833995e-02
<MEAN> 39
 4.173349e-01 1.361928e+01 -3.097961e+00 9.364986e-01 -5.157032e+00 -4.254510e+00 -6.774991e-01 1.883409e-01 -9.417607e-01 -6.004217e-01 -3.805961e+00 2.557962e+00 8.770329e-01 2.803200e-01 3.732618e-01 3.678220e-01 4.267333e-01 4.994390e-01 5.022051e-01 7.106223e-01 3.450794e-01 5.009592e-01 5.213208e-01 3.795658e-01 1.702999e-01 -1.387667e-04 -1.545359e-01 -2.660493e-01 -3.175285e-01 -3.501031e-01 -3.760175e-01 -4.094726e-01 -3.000815e-01 -4.263938e-01 -2.976549e-01 -3.029644e-01 -2.836856e-01 -2.773399e-01 -8.586432e-04
<VARIANCE> 39
 1.248184e+01 3.271528e+01 8.351235e+00 1.444533e+01 1.430580e+01 1.623428e+01 1.221364e+01 2.283926e+01 2.073416e+01 1.719515e+01 2.137752e+01 2.512610e+01 8.589911e-03 8.830265e-02 1.898650e-01 2.600345e-01 2.592514e-01 5.287241e-01 4.818044e-01 4.649861e-01 4.333389e-01 4.163184e-01 4.430827e-01 4.425984e-01 5.313183e-01 3.754082e-05 1.444145e-02 3.684807e-02 5.687279e-02 6.396709e-02 6.930783e-02 8.635367e-02 1.061839e-01 9.458567e-02 1.126549e-01 8.713374e-02 7.197715e-02 1.082722e-01 3.730628e-06
<GCONST> 3.303229e+01
<MIXTURE> 6 7.328250e-02
<MEAN> 39
 -8.239619e-01 1.249387e+01 -3.102569e+00 -1.484320e+00 -5.215364e+00 -4.786964e+00 -3.485442e+00 -3.838412e-01 1.554418e+00 1.546438e+00 4.128175e+00 4.204161e+00 8.907501e-01 -9.088075e-02 6.964953e-03 5.401395e-02 1.099844e-01 -1.816578e-01 -9.046869e-02 2.264227e-01 -1.154851e-01 4.517052e-01 5.476499e-01 4.399382e-01 1.335066e-01 1.075839e-02 -9.510249e-03 -1.216430e-01 -7.979073e-02 -1.962165e-01 -8.834800e-02 -1.203995e-01 1.470711e-02 -5.874335e-02 -1.147218e-01 -2.148440e-01 -2.414935e-01 -2.410171e-01 -4.320184e-03
<VARIANCE> 39
 1.585533e+01 4.070229e+01 2.893074e+01 2.514895e+01 2.525327e+01 2.608690e+01 3.520747e+01 3.201948e+01 5.417109e+01 6.213614e+01 6.601725e+01 9.654897e+01 7.044412e-03 4.018190e-01 7.869396e-01 9.877828e-01 1.439026e+00 1.677475e+00 1.486334e+00 2.063671e+00 1.403080e+00 1.721076e+00 1.804535e+00 2.173629e+00 1.870986e+00 9.689854e-05 8.526452e-02 1.185774e-01 1.684215e-01 2.331586e-01 2.304575e-01 2.628697e-01 2.669252e-01 2.772339e-01 3.210179e-01 3.134493e-01 3.303155e-01 3.560780e-01 2.387091e-05
<GCONST> 7.633348e+01
<MIXTURE> 7 7.900469e-02
<MEAN> 39
 -1.867604e+00 7.016330e+00 -4.785367e+00 -2.763765e+00 -7.771247e+00 -7.282511e+00 -4.797086e+00 -3.841330e+00 -4.348037e+00 -4.571973e+00 -5.342769e+00 -1.568192e-01 9.179415e-01 -1.875887e-01 -3.338329e-01 -4.760402e-01 -4.752373e-01 -4.968411e-01 -5.205765e-01 -4.288680e-01 -3.951382e-01 -4.562452e-01 -5.720425e-01 -4.206664e-01 -4.575931e-01 -1.062424e-03 1.304783e-01 2.756588e-01 3.151152e-01 2.848877e-01 3.971201e-01 3.649509e-01 3.924465e-01 4.243649e-01 3.801373e-01 3.297749e-01 2.465523e-01 2.073086e-01 -1.001588e-03
<VARIANCE> 39
 1.187094e+01 4.430510e+01 8.680295e+00 1.153328e+01 1.677566e+01 2.522956e+01 2.040506e+01 1.600907e+01 1.423658e+01 2.029855e+01 2.515211e+01 2.594660e+01 5.747360e-03 7.522117e-02 1.469795e-01 2.280935e-01 3.041273e-01 5.434453e-01 3.781070e-01 4.357022e-01 4.234400e-01 4.574898e-01 5.223901e-01 7.979013e-01 4.916088e-01 3.754082e-05 1.437857e-02 3.133087e-02 5.558285e-02 6.283852e-02 7.735690e-02 7.491379e-02 8.035105e-02 7.887062e-02 9.463517e-02 8.565763e-02 9.716418e-02 6.584123e-02 3.730628e-06
<GCONST> 3.243083e+01
<MIXTURE> 8 8.411873e-02
<MEAN> 39
 -1.070212e+00 2.511264e+00 -3.703045e-01 4.995068e-01 -9.680662e-02 2.265350e-01 -2.613188e-01 1.016966e-01 -3.414842e-01 -5.257351e-01 -4.293073e-01 8.307532e-01 9.693730e-01 9.682124e-02 4.769853e-02 1.023540e-01 1.633728e-02 -1.681408e-02 5.399287e-02 1.580258e-01 4.078594e-02 6.431433e-02 -2.126722e-02 4.063101e-02 -9.219278e-02 -1.794547e-03 -2.472768e-02 -5.464638e-02 -5.299004e-02 -7.667843e-02 -7.564271e-02 -8.066773e-02 -5.959777e-02 -5.211636e-02 -4.022253e-02 -2.125643e-02 -3.823153e-02 -3.609069e-02 -7.349084e-04
<VARIANCE> 39
 2.630004e+00 2.999393e+00 3.265627e+00 3.281797e+00 4.375236e+00 4.903161e+00 1.062499e+01 5.784733e+00 5.136446e+00 7.650077e+00 1.311692e+01 7.051858e+00 8.178985e-04 1.078359e-01 1.435660e-01 1.779879e-01 2.644832e-01 2.530791e-01 3.534716e-01 3.098380e-01 3.247076e-01 4.067616e-01 2.655131e-01 2.873755e-01 2.743983e-01 3.754082e-05 1.240000e-02 1.591741e-02 2.273621e-02 2.570077e-02 3.889100e-02 4.477847e-02 4.873562e-02 3.552789e-02 4.024593e-02 4.413554e-02 4.215707e-02 4.564185e-02 3.730628e-06
<GCONST> 3.725016e+00
<MIXTURE> 9 4.706259e-02
<MEAN> 39
 -9.275396e-01 1.754790e+01 1.731108e-01 -2.052536e+00 -7.081860e+00 -4.094662e+00 -1.104882e+01 2.490197e+00 1.537376e-02 -5.043102e+00 6.578447e+00 -6.435147e+00 8.537955e-01 1.549215e-01 1.641370e-01 1.623661e-01 1.353859e-01 2.627679e-01 1.078037e-01 4.571885e-01 1.090252e-01 8.104351e-02 -1.850124e-02 5.015783e-01 4.022523e-01 -5.645397e-04 -1.786452e-02 -8.238285e-02 2.965206e-02 -1.228054e-01 1.076246e-01 -2.106957e-02 2.436817e-02 -8.905791e-02 1.903152e-02 4.574183e-02 -3.837595e-02 1.666711e-01 -4.666506e-04
<VARIANCE> 39
 5.038085e+00 1.818700e+01 7.786918e+00 1.171731e+01 2.029833e+01 2.428916e+01 2.287410e+01 1.223486e+01 1.308788e+01 2.537567e+01 1.043874e+01 1.076368e+01 4.820952e-03 9.846792e-02 1.644210e-01 2.138899e-01 2.744547e-01 1.991401e-01 4.941165e-01 5.288558e-01 5.084174e-01 4.786192e-01 6.287290e-01 3.117959e-01 3.695025e-01 3.754082e-05 2.974975e-02 3.289435e-02 4.214824e-02 4.461587e-02 6.872877e-02 7.475650e-02 7.289807e-02 8.794548e-02 8.916389e-02 1.717912e-01 8.726578e-02 8.420397e-02 3.730628e-06
<GCONST> 2.847542e+01
<MIXTURE> 10 5.254526e-02
<MEAN> 39
 -1.302461e+00 1.057225e+00 -1.462284e+00 -7.120883e-01 -5.954108e-01 -4.992958e-01 -9.124491e-01 -1.384752e+00 -7.653050e-01 -1.002281e+00 -1.556168e+00 9.444924e-02 9.733256e-01 -2.093148e-01 -6.414722e-01 -7.722964e-01 -6.691525e-01 -8.527649e-01 -7.241220e-01 -9.083173e-01 -9.687279e-01 -6.830117e-01 -7.285655e-01 -4.885692e-01 -5.384792e-01 -3.898789e-04 -1.153697e-02 -2.846467e-02 -8.424027e-03 -2.101288e-02 -6.048839e-02 -1.122758e-01 -4.268922e-02 4.145869e-03 -1.397709e-01 -6.390663e-02 -2.207914e-02 -6.675427e-02 -7.532341e-04
<VARIANCE> 39
 2.851349e+00 2.859399e+00 4.903980e+00 5.820295e+00 5.487095e+00 5.659387e+00 8.484727e+00 6.119370e+00 6.804496e+00 9.194746e+00 1.234757e+01 7.338072e+00 8.178985e-04 1.656278e-01 1.920993e-01 2.206637e-01 3.343917e-01 4.724842e-01 5.699943e-01 4.814880e-01 5.197582e-01 5.321108e-01 4.833475e-01 1.117401e+00 7.452991e-01 3.754082e-05 1.397874e-02 3.786702e-02 4.715698e-02 4.919349e-02 8.942848e-02 7.786757e-02 8.870427e-02 1.029467e-01 7.412710e-02 8.154113e-02 1.245536e-01 8.541707e-02 3.730628e-06
<GCONST> 2.014003e+01
<MIXTURE> 11 5.272503e-02
<MEAN> 39
 -2.293828e+00 1.777489e+01 -2.482610e+00 -2.734641e+00 -6.469722e+00 -7.969071e+00 -8.962213e+00 -2.400493e+00 -4.597514e+00 -1.752034e+00 -1.101754e+00 -5.308095e-01 8.651764e-01 -4.929424e-03 3.404677e-03 3.793745e-02 -6.125322e-02 1.816182e-01 -1.510442e-01 7.462931e-02 1.145840e-01 2.714884e-01 -8.109468e-02 1.126648e-01 -1.231104e-02 8.678272e-04 1.303796e-02 -6.855637e-02 9.081791e-02 -3.781352e-02 4.668347e-02 -3.166939e-02 7.308920e-02 5.222663e-02 1.140180e-01 5.159587e-02 1.372100e-01 -3.946180e-02 -1.492056e-03
<VARIANCE> 39
 5.763462e+00 4.881933e+01 2.351031e+01 6.685935e+00 1.072418e+01 2.113268e+01 1.684461e+01 2.667392e+01 2.018065e+01 1.902216e+01 4.075821e+01 2.676816e+01 3.692160e-03 4.521986e-02 9.724025e-02 1.343873e-01 1.731380e-01 2.605416e-01 1.973024e-01 2.491829e-01 2.732818e-01 2.208018e-01 2.678344e-01 2.241789e-01 2.355579e-01 3.754082e-05 9.438112e-03 2.372691e-02 2.442244e-02 3.529976e-02 5.668564e-02 4.622765e-02 5.145140e-02 6.417616e-02 5.439711e-02 5.232425e-02 8.020286e-02 7.661144e-02 3.730628e-06
<GCONST> 1.987682e+01
<MIXTURE> 12 7.017479e-02
<MEAN> 39
 -1.188097e-01 9.890054e+00 -2.000819e+00 9.331099e-01 -3.214804e+00 -2.652060e+00 -3.411242e-01 1.384361e-04 -1.195503e+00 1.003424e-01 -2.101259e+00 2.635704e+00 9.144924e-01 -1.113231e-01 -3.310164e-01 -4.586560e-01 -4.588002e-01 -3.741255e-01 -4.380870e-01 -2.861330e-01 -5.292444e-01 -3.273611e-01 -3.262042e-01 -4.595998e-01 -2.707771e-01 4.060369e-04 -1.823345e-01 -2.956735e-01 -3.733464e-01 -3.997957e-01 -4.164573e-01 -4.351284e-01 -4.218543e-01 -4.250731e-01 -3.437549e-01 -3.621928e-01 -3.242366e-01 -3.020923e-01 -9.782491e-04
<VARIANCE> 39
 1.002242e+01 4.494120e+01 9.327036e+00 1.178767e+01 1.724457e+01 1.860948e+01 1.067572e+01 1.622328e+01 1.856677e+01 1.502331e+01 2.279865e+01 2.573034e+01 5.880314e-03 8.785826e-02 1.728778e-01 2.696215e-01 3.137246e-01 3.549157e-01 4.098484e-01 4.232120e-01 4.505987e-01 4.616250e-01 5.018784e-01 4.881845e-01 4.075854e-01 3.754082e-05 1.661812e-02 4.728566e-02 4.021145e-02 4.566746e-02 6.158838e-02 7.990058e-02 7.899871e-02 8.753408e-02 8.831498e-02 6.810229e-02 9.064984e-02 8.108565e-02 3.730628e-06
<GCONST> 3.051040e+01
<MIXTURE> 13 5.800538e-02
<MEAN> 39
 -2.211658e+00 9.006330e-01 -3.180001e+00 -1.751629e+00 -2.897437e+00 -2.602556e+00 -3.770344e+00 -2.593100e+00 -2.653789e+00 -3.053174e+00 -2.243408e+00 -8.234003e-01 9.732167e-01 1.083072e-01 -4.702799e-02 3.580311e-03 1.752186e-02 -4.005365e-02 -7.540780e-02 -7.293426e-02 -3.630977e-02 6.138629e-02 -1.610950e-02 -3.403582e-03 2.511688e-02 -2.804383e-04 3.920268e-02 8.446252e-02 1.265693e-01 4.825338e-02 5.012812e-02 7.233237e-02 1.371212e-01 1.445280e-01 1.085049e-01 8.211189e-02 3.023325e-02 7.213047e-02 -7.113841e-04
<VARIANCE> 39
 2.972224e+00 5.058321e+00 5.255297e+00 6.299158e+00 6.306586e+00 3.964922e+00 8.423106e+00 5.395246e+00 5.071888e+00 6.109325e+00 1.531521e+01 1.737179e+01 8.178985e-04 7.682632e-02 9.964666e-02 2.193062e-01 2.130384e-01 2.674913e-01 2.296568e-01 2.950721e-01 3.027285e-01 2.460969e-01 2.737834e-01 2.526976e-01 2.819033e-01 3.754082e-05 8.572074e-03 1.540030e-02 2.061629e-02 2.903710e-02 4.715008e-02 3.420445e-02 5.301689e-02 3.757793e-02 4.516050e-02 5.877781e-02 4.362197e-02 6.014405e-02 3.730628e-06
<GCONST> 4.785318e+00
<MIXTURE> 14 6.183903e-02
<MEAN> 39
 -1.372687e+00 1.304249e+01 -3.409252e+00 -1.452477e+00 -7.015876e+00 -8.233062e+00 -4.650731e+00 -1.608681e+00 -1.945938e+00 -3.997028e+00 -6.024076e+00 -1.870110e+00 8.755931e-01 -5.150299e-03 -5.756731e-02 -1.936434e-01 -1.116124e-01 -8.299654e-02 -7.249457e-02 6.154497e-02 -2.632568e-01 -1.886336e-02 -1.707643e-01 -1.346687e-01 -1.084408e-01 -1.700046e-03 -1.893276e-02 -3.222158e-02 -5.754657e-02 -6.087066e-02 -4.701120e-02 -4.985317e-02 -2.247740e-02 -4.957210e-02 -8.668755e-02 -7.453067e-02 -2.703547e-02 2.282735e-02 -9.818265e-04
<VARIANCE> 39
 1.431142e+01 2.436095e+01 1.207077e+01 1.811934e+01 1.844675e+01 8.682175e+00 2.372429e+01 1.869148e+01 1.769699e+01 4.022454e+01 1.996886e+01 2.324874e+01 4.473133e-03 3.546137e-02 1.126898e-01 9.852473e-02 1.828492e-01 2.808168e-01 4.236203e-01 3.023362e-01 4.425128e-01 4.069203e-01 2.555233e-01 3.578649e-01 3.069389e-01 3.754082e-05 8.037192e-03 1.928189e-02 2.540969e-02 2.696591e-02 5.015596e-02 7.421451e-02 5.220076e-02 5.637850e-02 8.758683e-02 5.360067e-02 2.660014e-02 4.467015e-02 3.730628e-06
<GCONST> 2.097122e+01
<MIXTURE> 15 5.512702e-02
<MEAN> 39
